{"learner":{"attributes":{"best_iteration":"199","best_score":"0.9475264286526496"},"feature_names":[],"feature_types":[],"gradient_booster":{"model":{"gbtree_model_param":{"num_parallel_tree":"1","num_trees":"200"},"iteration_indptr":[0,1,2,3,4,5,6,7,8,9,10,11,12,13,14,15,16,17,18,19,20,21,22,23,24,25,26,27,28,29,30,31,32,33,34,35,36,37,38,39,40,41,42,43,44,45,46,47,48,49,50,51,52,53,54,55,56,57,58,59,60,61,62,63,64,65,66,67,68,69,70,71,72,73,74,75,76,77,78,79,80,81,82,83,84,85,86,87,88,89,90,91,92,93,94,95,96,97,98,99,100,101,102,103,104,105,106,107,108,109,110,111,112,113,114,115,116,117,118,119,120,121,122,123,124,125,126,127,128,129,130,131,132,133,134,135,136,137,138,139,140,141,142,143,144,145,146,147,148,149,150,151,152,153,154,155,156,157,158,159,160,161,162,163,164,165,166,167,168,169,170,171,172,173,174,175,176,177,178,179,180,181,182,183,184,185,186,187,188,189,190,191,192,193,194,195,196,197,198,199,200],"tree_info":[0,0,0,0,0,0,0,0,0,0,0,0,0,0,0,0,0,0,0,0,0,0,0,0,0,0,0,0,0,0,0,0,0,0,0,0,0,0,0,0,0,0,0,0,0,0,0,0,0,0,0,0,0,0,0,0,0,0,0,0,0,0,0,0,0,0,0,0,0,0,0,0,0,0,0,0,0,0,0,0,0,0,0,0,0,0,0,0,0,0,0,0,0,0,0,0,0,0,0,0,0,0,0,0,0,0,0,0,0,0,0,0,0,0,0,0,0,0,0,0,0,0,0,0,0,0,0,0,0,0,0,0,0,0,0,0,0,0,0,0,0,0,0,0,0,0,0,0,0,0,0,0,0,0,0,0,0,0,0,0,0,0,0,0,0,0,0,0,0,0,0,0,0,0,0,0,0,0,0,0,0,0,0,0,0,0,0,0,0,0,0,0,0,0,0,0,0,0,0,0],"trees":[{"base_weights":[-7.7413344E-1,1.778596E0,-1.0121193E0,2.9805884E0,1.5239675E-1,-1.0931439E0,-1.9527507E-1,3.9184747E0,2.339735E0,8.5103023E-1,-5.4287046E-1,-8.503923E-1,-1.128604E0,4.8612213E-1,-6.463859E-1,4.3179955E0,3.012565E0,2.6629426E0,1.585598E0,1.31721E0,5.951966E-1,-1.8734805E-1,-8.365343E-1,-9.4505835E-1,-1.6199926E-1,-1.0698507E0,-1.1514935E0,1.2074636E0,4.185047E-2,-3.3176118E-1,-8.2101876E-1,4.875393E0,4.0076447E0,3.4486318E0,2.6470184E0,3.0998003E0,2.2880723E0,1.9439722E0,1.2578362E0,1.656959E0,8.237162E-1,9.724764E-1,3.5997158E-1,1.7943223E-1,-3.7077084E-1,-4.9924973E-1,-9.320213E-1,-7.039414E-1,-1.0054722E0,1.3831177E-2,-4.018848E-1,-8.9373916E-1,-1.089425E0,-1.1208377E0,-1.1547978E0,1.502765E0,7.935542E-1,3.8445777E-1,-2.8578597E-1,8.248412E-3,-6.193384E-1,-6.30905E-1,-9.4359905E-1,2.7618623E-1,2.3670827E-1,2.1630569E-1,1.841905E-1,1.9444373E-1,1.5717022E-1,1.5246056E-1,1.1772263E-1,8.756199E-2,1.5995401E-1,5.3218808E-2,1.1985232E-1,1.1541995E-1,8.0021165E-2,8.144038E-2,5.0231677E-2,9.8863155E-2,6.562262E-2,6.097089E-2,2.9562175E-2,6.55904E-2,3.5219625E-2,3.1363014E-2,6.105454E-3,2.8623372E-2,2.8334332E-3,-1.0337241E-2,-2.6087329E-2,-1.3717099E-2,-3.185604E-2,-3.759537E-2,-5.0205816E-2,-2.7339904E-2,-4.165352E-2,-4.3339398E-2,-5.353902E-2,1.4907992E-2,-5.2869017E-3,-9.131058E-3,-2.609838E-2,-4.040546E-2,-4.7890883E-2,-4.9034715E-2,-5.5198517E-2,-5.348015E-2,-5.6754053E-2,-5.7049047E-2,-5.77989E-2,8.635427E-2,5.2383866E-2,5.3231515E-2,2.0315938E-2,3.49612E-2,-1.7628834E-3,-1.7815613E-3,-3.1221291E-2,1.4831441E-2,-9.684588E-3,-1.46546485E-2,-4.1425437E-2,-2.0982567E-2,-3.774102E-2,-3.4331314E-2,-4.993578E-2],"categories":[],"categories_nodes":[],"categories_segments":[],"categories_sizes":[],"default_left":[0,0,0,0,0,0,0,0,0,0,0,0,0,0,0,0,0,0,0,0,0,0,0,0,0,0,0,0,0,0,0,0,0,0,0,0,0,0,0,0,0,0,0,0,0,0,0,0,0,0,0,0,0,0,0,0,0,0,0,0,0,0,0,0,0,0,0,0,0,0,0,0,0,0,0,0,0,0,0,0,0,0,0,0,0,0,0,0,0,0,0,0,0,0,0,0,0,0,0,0,0,0,0,0,0,0,0,0,0,0,0,0,0,0,0,0,0,0,0,0,0,0,0,0,0,0,0],"id":0,"left_children":[1,3,5,7,9,11,13,15,17,19,21,23,25,27,29,31,33,35,37,39,41,43,45,47,49,51,53,55,57,59,61,63,65,67,69,71,73,75,77,79,81,83,85,87,89,91,93,95,97,99,101,103,105,107,109,111,113,115,117,119,121,123,125,-1,-1,-1,-1,-1,-1,-1,-1,-1,-1,-1,-1,-1,-1,-1,-1,-1,-1,-1,-1,-1,-1,-1,-1,-1,-1,-1,-1,-1,-1,-1,-1,-1,-1,-1,-1,-1,-1,-1,-1,-1,-1,-1,-1,-1,-1,-1,-1,-1,-1,-1,-1,-1,-1,-1,-1,-1,-1,-1,-1,-1,-1,-1,-1],"loss_changes":[7.380139E5,2.0249731E5,7.3545E4,3.5793688E4,2.1387426E4,8.701125E3,3.082442E4,8.737906E3,8.621828E3,2.6185244E3,2.3039097E3,8.397016E3,1.185E3,1.280097E4,3.3147637E3,2.882625E3,1.1709453E3,4.0495781E3,1.2449492E3,1.303249E3,1.2582476E3,6.7176465E2,3.8876367E2,1.6493828E3,6.5710895E2,8.5159375E2,6.3E1,1.8596875E3,2.7750173E3,2.1059006E3,9.035762E2,5.228125E2,1.0960312E3,4.4096484E2,4.671953E2,1.5256406E3,1.7757266E3,6.311914E2,5.1963477E2,5.058213E2,2.9131763E2,4.9448193E2,5.554169E2,1.6060028E2,1.647232E2,8.257721E1,1.2153906E2,4.6015234E2,8.1946094E2,3.056852E2,1.733977E2,1.3499805E2,3.5096875E2,4.3875E1,8E0,9.051504E2,6.652229E2,1.5965566E3,1.0704863E3,5.748404E2,7.9601514E2,3.979126E2,3.3338672E2,0E0,0E0,0E0,0E0,0E0,0E0,0E0,0E0,0E0,0E0,0E0,0E0,0E0,0E0,0E0,0E0,0E0,0E0,0E0,0E0,0E0,0E0,0E0,0E0,0E0,0E0,0E0,0E0,0E0,0E0,0E0,0E0,0E0,0E0,0E0,0E0,0E0,0E0,0E0,0E0,0E0,0E0,0E0,0E0,0E0,0E0,0E0,0E0,0E0,0E0,0E0,0E0,0E0,0E0,0E0,0E0,0E0,0E0,0E0,0E0,0E0,0E0,0E0,0E0],"parents":[2147483647,0,0,1,1,2,2,3,3,4,4,5,5,6,6,7,7,8,8,9,9,10,10,11,11,12,12,13,13,14,14,15,15,16,16,17,17,18,18,19,19,20,20,21,21,22,22,23,23,24,24,25,25,26,26,27,27,28,28,29,29,30,30,31,31,32,32,33,33,34,34,35,35,36,36,37,37,38,38,39,39,40,40,41,41,42,42,43,43,44,44,45,45,46,46,47,47,48,48,49,49,50,50,51,51,52,52,53,53,54,54,55,55,56,56,57,57,58,58,59,59,60,60,61,61,62,62],"right_children":[2,4,6,8,10,12,14,16,18,20,22,24,26,28,30,32,34,36,38,40,42,44,46,48,50,52,54,56,58,60,62,64,66,68,70,72,74,76,78,80,82,84,86,88,90,92,94,96,98,100,102,104,106,108,110,112,114,116,118,120,122,124,126,-1,-1,-1,-1,-1,-1,-1,-1,-1,-1,-1,-1,-1,-1,-1,-1,-1,-1,-1,-1,-1,-1,-1,-1,-1,-1,-1,-1,-1,-1,-1,-1,-1,-1,-1,-1,-1,-1,-1,-1,-1,-1,-1,-1,-1,-1,-1,-1,-1,-1,-1,-1,-1,-1,-1,-1,-1,-1,-1,-1,-1,-1,-1,-1],"split_conditions":[3.8337681E0,8.450484E0,2.0050936E1,3.7802854E0,8.655404E0,3.915574E0,3.8745027E0,8.325314E0,8.351174E0,3.7936933E0,8.791487E0,1.6226044E1,3.971858E0,8.375056E0,3.899112E0,3.7443352E0,8.375056E0,3.804955E0,3.8080664E0,8.551067E0,-8.058865E0,4.6798816E0,4.6798816E0,4.6798816E0,3.8874319E0,4.6798816E0,3.907662E0,3.8556516E0,8.533515E0,8.450484E0,8.441042E0,-2.6735023E-1,8.264813E0,3.7545707E0,3.907662E0,2.6606155E1,2.3570168E1,-5.9876666E0,-7.0117517E0,-5.9876666E0,-9.404879E0,8.540813E0,8.544259E0,3.7917244E0,8.716595E0,8.854676E0,8.854676E0,8.831186E0,8.833376E0,-9.065248E0,-5.116672E0,-8.493011E0,8.56411E0,-1.0764422E1,2.1436253E1,3.3712555E1,3.11447E1,3.147754E1,3.147754E1,2.7205488E1,2.7205488E1,3.915574E0,-5.116672E0,2.7618623E-1,2.3670827E-1,2.1630569E-1,1.841905E-1,1.9444373E-1,1.5717022E-1,1.5246056E-1,1.1772263E-1,8.756199E-2,1.5995401E-1,5.3218808E-2,1.1985232E-1,1.1541995E-1,8.0021165E-2,8.144038E-2,5.0231677E-2,9.8863155E-2,6.562262E-2,6.097089E-2,2.9562175E-2,6.55904E-2,3.5219625E-2,3.1363014E-2,6.105454E-3,2.8623372E-2,2.8334332E-3,-1.0337241E-2,-2.6087329E-2,-1.3717099E-2,-3.185604E-2,-3.759537E-2,-5.0205816E-2,-2.7339904E-2,-4.165352E-2,-4.3339398E-2,-5.353902E-2,1.4907992E-2,-5.2869017E-3,-9.131058E-3,-2.609838E-2,-4.040546E-2,-4.7890883E-2,-4.9034715E-2,-5.5198517E-2,-5.348015E-2,-5.6754053E-2,-5.7049047E-2,-5.77989E-2,8.635427E-2,5.2383866E-2,5.3231515E-2,2.0315938E-2,3.49612E-2,-1.7628834E-3,-1.7815613E-3,-3.1221291E-2,1.4831441E-2,-9.684588E-3,-1.46546485E-2,-4.1425437E-2,-2.0982567E-2,-3.774102E-2,-3.4331314E-2,-4.993578E-2],"split_indices":[8,2,9,8,2,8,8,2,2,8,2,9,8,2,8,8,2,8,8,2,6,3,3,3,8,3,3,8,2,2,2,11,2,8,3,9,9,6,6,6,6,2,2,8,2,2,2,2,2,6,6,6,2,6,0,9,9,9,9,9,9,8,6,0,0,0,0,0,0,0,0,0,0,0,0,0,0,0,0,0,0,0,0,0,0,0,0,0,0,0,0,0,0,0,0,0,0,0,0,0,0,0,0,0,0,0,0,0,0,0,0,0,0,0,0,0,0,0,0,0,0,0,0,0,0,0,0],"split_type":[0,0,0,0,0,0,0,0,0,0,0,0,0,0,0,0,0,0,0,0,0,0,0,0,0,0,0,0,0,0,0,0,0,0,0,0,0,0,0,0,0,0,0,0,0,0,0,0,0,0,0,0,0,0,0,0,0,0,0,0,0,0,0,0,0,0,0,0,0,0,0,0,0,0,0,0,0,0,0,0,0,0,0,0,0,0,0,0,0,0,0,0,0,0,0,0,0,0,0,0,0,0,0,0,0,0,0,0,0,0,0,0,0,0,0,0,0,0,0,0,0,0,0,0,0,0,0],"sum_hessian":[1.214807E6,1.03595414E5,1.1112116E6,5.956648E4,4.402893E4,1.0109344E6,1.0027728E5,2.417758E4,3.5388902E4,2.196119E4,2.2067742E4,1.2885422E5,8.820801E5,3.994332E4,6.0333957E4,1.677553E4,7.4020513E3,2.4770324E4,1.0618577E4,7.780118E3,1.418107E4,9.983236E3,1.2084506E4,1.1327637E5,1.55778545E4,2.4731431E5,6.347658E5,1.5223681E4,2.471964E4,2.15363E4,3.8797656E4,5.9945273E3,1.0781002E4,3.3715896E3,4.0304617E3,1.1436013E4,1.3334312E4,5.070055E3,5.5485215E3,4.6064316E3,3.1736868E3,5.444864E3,8.736206E3,3.3281477E3,6.6550884E3,2.667707E3,9.4168E3,2.2698256E4,9.057811E4,8.989619E3,6.588236E3,2.4743293E4,2.2257102E5,6.17947E4,5.729711E5,8.883307E3,6.3403745E3,1.2083662E4,1.26359795E4,9.868959E3,1.1667342E4,1.5211613E4,2.3586043E4,1.0654175E3,4.92911E3,5.4292974E3,5.3517046E3,1.3756665E3,1.9959232E3,1.6932765E3,2.337185E3,7.8545734E2,1.0650555E4,1.0912415E3,1.224307E4,2.4574956E3,2.6125596E3,2.2486113E3,3.2999102E3,2.3846094E3,2.221822E3,1.1729368E3,2.0007501E3,2.4013828E3,3.0434812E3,4.112881E3,4.6233257E3,7.912496E2,2.536898E3,3.1908223E3,3.464266E3,1.01497644E3,1.6527306E3,2.6950996E3,6.7216997E3,1.0240872E4,1.2457385E4,2.9003152E4,6.1574953E4,2.6608286E3,6.32879E3,2.3322375E3,4.2559985E3,1.0596494E4,1.41468E4,2.6269197E4,1.9630181E5,1.34586045E4,4.8336094E4,4.5163734E4,5.278074E5,5.94843E3,2.934876E3,3.728539E3,2.6118357E3,6.90476E3,5.178902E3,7.268105E3,5.367875E3,4.0643706E3,5.804589E3,4.5590073E3,7.1083345E3,5.6255107E3,9.586103E3,4.1677866E3,1.9418258E4],"tree_param":{"num_deleted":"0","num_feature":"13","num_nodes":"127","size_leaf_vector":"1"}},{"base_weights":[-7.5776386E-1,1.5233166E0,-1.0050305E0,2.5101774E0,1.1264458E-1,-1.0829713E0,-2.2302026E-1,3.1226144E0,1.8999814E0,7.6672983E-1,-5.3258836E-1,-8.397207E-1,-1.1182665E0,3.6625344E-1,-6.5974754E-1,3.37552E0,2.334165E0,2.2821102E0,1.4776243E0,1.2094516E0,5.366332E-1,-1.8829456E-1,-8.1500643E-1,-9.342927E-1,-1.6565143E-1,-1.0576961E0,-1.1419576E0,8.344932E-1,-1.8307287E-1,-3.8518888E-1,-8.230859E-1,3.7830772E0,3.0846157E0,2.6385288E0,2.0555363E0,1.0312611E0,2.363466E0,1.8474054E0,1.2814921E0,1.6166383E0,9.038655E-1,8.466669E-1,2.9072168E-1,1.4089143E-1,-3.5864267E-1,-4.8067066E-1,-9.1148394E-1,-6.9517595E-1,-9.945808E-1,5.6126136E-2,-3.4607765E-1,-8.7926537E-1,-1.0776643E0,-1.1100043E0,-1.145412E0,1.1062156E0,4.8447755E-1,8.474711E-2,-5.099585E-1,-8.22317E-2,-6.575627E-1,-6.5172833E-1,-9.5170444E-1,2.0082107E-1,1.753277E-1,9.7238444E-2,1.5756999E-1,1.4595096E-1,1.1887187E-1,1.286153E-1,9.478979E-2,7.318237E-2,3.2845553E-2,1.2899357E-1,9.991679E-2,4.7497742E-2,9.697762E-2,7.951402E-2,5.0953954E-2,9.670937E-2,6.6090934E-2,5.9854675E-2,3.4441855E-2,5.691467E-2,2.9190663E-2,2.1021336E-2,-9.770022E-3,2.7234122E-2,1.9366101E-3,-1.0570257E-2,-2.549533E-2,-1.314227E-2,-3.1064192E-2,-3.7423108E-2,-5.0220925E-2,-2.7067387E-2,-4.1338615E-2,-4.2733945E-2,-5.302095E-2,1.2306563E-2,-4.6866774E-3,-5.947599E-3,-2.278868E-2,-4.0101994E-2,-4.763099E-2,-4.8964776E-2,-5.471017E-2,-5.304737E-2,-5.626434E-2,-5.6534406E-2,-5.7333507E-2,6.65528E-2,3.134277E-2,3.7341952E-2,5.9560915E-3,2.0178465E-2,-5.171898E-3,-1.0382718E-2,-3.3301096E-2,1.0007135E-2,-1.2969992E-2,-1.7447134E-2,-4.1953698E-2,-2.1755867E-2,-3.737473E-2,-3.8630437E-2,-5.105087E-2],"categories":[],"categories_nodes":[],"categories_segments":[],"categories_sizes":[],"default_left":[0,0,0,0,0,0,0,0,0,0,0,0,0,0,0,0,0,0,0,0,0,0,0,0,0,0,0,0,0,0,0,0,0,0,0,0,0,0,0,0,0,0,0,0,0,0,0,0,0,0,0,0,0,0,0,0,0,0,0,0,0,0,0,0,0,0,0,0,0,0,0,0,0,0,0,0,0,0,0,0,0,0,0,0,0,0,0,0,0,0,0,0,0,0,0,0,0,0,0,0,0,0,0,0,0,0,0,0,0,0,0,0,0,0,0,0,0,0,0,0,0,0,0,0,0,0,0],"id":1,"left_children":[1,3,5,7,9,11,13,15,17,19,21,23,25,27,29,31,33,35,37,39,41,43,45,47,49,51,53,55,57,59,61,63,65,67,69,71,73,75,77,79,81,83,85,87,89,91,93,95,97,99,101,103,105,107,109,111,113,115,117,119,121,123,125,-1,-1,-1,-1,-1,-1,-1,-1,-1,-1,-1,-1,-1,-1,-1,-1,-1,-1,-1,-1,-1,-1,-1,-1,-1,-1,-1,-1,-1,-1,-1,-1,-1,-1,-1,-1,-1,-1,-1,-1,-1,-1,-1,-1,-1,-1,-1,-1,-1,-1,-1,-1,-1,-1,-1,-1,-1,-1,-1,-1,-1,-1,-1,-1],"loss_changes":[6.664264E5,1.6086306E5,6.4971875E4,2.5401906E4,2.007409E4,8.3215E3,2.4864385E4,6.7579375E3,5.4936016E3,2.4055176E3,2.328084E3,7.8303125E3,1.213625E3,1.0578412E4,2.488207E3,3.033875E3,6.936719E2,1.8170234E3,1.1711641E3,1.0035752E3,1.184856E3,6.051979E2,4.238545E2,1.5522031E3,6.048191E2,8.47125E2,6.5875E1,2.111005E3,1.6568765E3,1.7080737E3,7.661699E2,6.7596875E2,1.1352969E3,2.8133203E2,3.5077344E2,1.7605896E2,1.3212734E3,4.6173047E2,8.553711E2,3.215166E2,2.9025488E2,5.263496E2,5.467497E2,1.5181454E2,1.5828296E2,9.012683E1,1.5389062E2,4.3870996E2,7.914922E2,1.9311008E2,2.0759491E2,1.3497461E2,3.471875E2,4.3335938E1,8.9375E0,1.3461924E3,9.301626E2,6.242123E2,4.0196118E2,4.903758E2,6.103115E2,3.091836E2,2.4589453E2,0E0,0E0,0E0,0E0,0E0,0E0,0E0,0E0,0E0,0E0,0E0,0E0,0E0,0E0,0E0,0E0,0E0,0E0,0E0,0E0,0E0,0E0,0E0,0E0,0E0,0E0,0E0,0E0,0E0,0E0,0E0,0E0,0E0,0E0,0E0,0E0,0E0,0E0,0E0,0E0,0E0,0E0,0E0,0E0,0E0,0E0,0E0,0E0,0E0,0E0,0E0,0E0,0E0,0E0,0E0,0E0,0E0,0E0,0E0,0E0,0E0,0E0,0E0,0E0],"parents":[2147483647,0,0,1,1,2,2,3,3,4,4,5,5,6,6,7,7,8,8,9,9,10,10,11,11,12,12,13,13,14,14,15,15,16,16,17,17,18,18,19,19,20,20,21,21,22,22,23,23,24,24,25,25,26,26,27,27,28,28,29,29,30,30,31,31,32,32,33,33,34,34,35,35,36,36,37,37,38,38,39,39,40,40,41,41,42,42,43,43,44,44,45,45,46,46,47,47,48,48,49,49,50,50,51,51,52,52,53,53,54,54,55,55,56,56,57,57,58,58,59,59,60,60,61,61,62,62],"right_children":[2,4,6,8,10,12,14,16,18,20,22,24,26,28,30,32,34,36,38,40,42,44,46,48,50,52,54,56,58,60,62,64,66,68,70,72,74,76,78,80,82,84,86,88,90,92,94,96,98,100,102,104,106,108,110,112,114,116,118,120,122,124,126,-1,-1,-1,-1,-1,-1,-1,-1,-1,-1,-1,-1,-1,-1,-1,-1,-1,-1,-1,-1,-1,-1,-1,-1,-1,-1,-1,-1,-1,-1,-1,-1,-1,-1,-1,-1,-1,-1,-1,-1,-1,-1,-1,-1,-1,-1,-1,-1,-1,-1,-1,-1,-1,-1,-1,-1,-1,-1,-1,-1,-1,-1,-1,-1],"split_conditions":[3.8365693E0,8.450484E0,2.0050936E1,3.7896178E0,8.648923E0,3.915574E0,3.8783722E0,8.341654E0,8.319183E0,3.7936933E0,8.789066E0,1.6226044E1,3.971858E0,8.450484E0,3.9026446E0,3.7545707E0,4.6798816E0,2.3570168E1,-9.065248E0,8.524392E0,-6.6993213E0,4.6798816E0,4.6798816E0,4.6798816E0,3.8783722E0,4.6798816E0,3.907662E0,3.8580406E0,3.0796373E1,8.469415E0,8.474278E0,8.274687E0,2.921416E1,3.7660587E0,3.749853E0,-6.6993213E0,3.8173063E0,2.257033E1,8.375056E0,4.6798816E0,-8.281971E0,8.544259E0,3.8273026E1,1.3978712E1,8.716595E0,8.854676E0,8.871075E0,8.833376E0,8.833376E0,8.505785E0,-6.3596907E0,-7.5703163E0,8.609374E0,-1.0403862E1,2.1436253E1,3.3712555E1,3.0796373E1,8.544259E0,-5.5764136E0,2.6606155E1,2.6606155E1,2.944427E-1,-1.2882068E0,2.0082107E-1,1.753277E-1,9.7238444E-2,1.5756999E-1,1.4595096E-1,1.1887187E-1,1.286153E-1,9.478979E-2,7.318237E-2,3.2845553E-2,1.2899357E-1,9.991679E-2,4.7497742E-2,9.697762E-2,7.951402E-2,5.0953954E-2,9.670937E-2,6.6090934E-2,5.9854675E-2,3.4441855E-2,5.691467E-2,2.9190663E-2,2.1021336E-2,-9.770022E-3,2.7234122E-2,1.9366101E-3,-1.0570257E-2,-2.549533E-2,-1.314227E-2,-3.1064192E-2,-3.7423108E-2,-5.0220925E-2,-2.7067387E-2,-4.1338615E-2,-4.2733945E-2,-5.302095E-2,1.2306563E-2,-4.6866774E-3,-5.947599E-3,-2.278868E-2,-4.0101994E-2,-4.763099E-2,-4.8964776E-2,-5.471017E-2,-5.304737E-2,-5.626434E-2,-5.6534406E-2,-5.7333507E-2,6.65528E-2,3.134277E-2,3.7341952E-2,5.9560915E-3,2.0178465E-2,-5.171898E-3,-1.0382718E-2,-3.3301096E-2,1.0007135E-2,-1.2969992E-2,-1.7447134E-2,-4.1953698E-2,-2.1755867E-2,-3.737473E-2,-3.8630437E-2,-5.105087E-2],"split_indices":[8,2,9,8,2,8,8,2,2,8,2,9,8,2,8,8,3,9,6,2,6,3,3,3,8,3,3,8,9,2,2,2,9,8,8,6,8,9,2,3,6,2,9,0,2,2,2,2,2,2,6,6,2,6,0,9,9,2,6,9,9,6,6,0,0,0,0,0,0,0,0,0,0,0,0,0,0,0,0,0,0,0,0,0,0,0,0,0,0,0,0,0,0,0,0,0,0,0,0,0,0,0,0,0,0,0,0,0,0,0,0,0,0,0,0,0,0,0,0,0,0,0,0,0,0,0,0],"split_type":[0,0,0,0,0,0,0,0,0,0,0,0,0,0,0,0,0,0,0,0,0,0,0,0,0,0,0,0,0,0,0,0,0,0,0,0,0,0,0,0,0,0,0,0,0,0,0,0,0,0,0,0,0,0,0,0,0,0,0,0,0,0,0,0,0,0,0,0,0,0,0,0,0,0,0,0,0,0,0,0,0,0,0,0,0,0,0,0,0,0,0,0,0,0,0,0,0,0,0,0,0,0,0,0,0,0,0,0,0,0,0,0,0,0,0,0,0,0,0,0,0,0,0,0,0,0,0],"sum_hessian":[1.1815295E6,1.15550414E5,1.065979E6,6.798766E4,4.7562754E4,9.693647E5,9.661435E4,3.3929465E4,3.405819E4,2.3619262E4,2.3943494E4,1.228336E5,8.465311E5,4.1124906E4,5.5489445E4,2.56868E4,8.242662E3,1.7878326E4,1.6179866E4,8.0760776E3,1.5543184E4,1.0790518E4,1.3152977E4,1.07720086E5,1.5113519E4,2.3802511E5,6.08506E5,2.2200727E4,1.8924178E4,2.0699172E4,3.4790273E4,1.0693365E4,1.4993436E4,3.935356E3,4.3073066E3,1.0926394E3,1.6785688E4,5.604642E3,1.0575225E4,3.460605E3,4.6154727E3,6.874144E3,8.669039E3,3.679776E3,7.1107417E3,2.9468535E3,1.0206123E4,2.1693018E4,8.602706E4,6.7801436E3,8.333375E3,2.396098E4,2.1406412E5,5.9395703E4,5.491103E5,1.2496978E4,9.703749E3,1.0402263E4,8.521915E3,9.80004E3,1.0899132E4,1.4919363E4,1.987091E4,5.792144E3,4.901221E3,8.315143E2,1.4161921E4,1.8922908E3,2.0430653E3,1.01349414E3,3.2938123E3,5.0566748E2,5.86972E2,1.0535464E4,6.250223E3,5.229329E2,5.0817095E3,4.8559917E3,5.7192324E3,1.6634014E3,1.7972036E3,1.950739E3,2.6647336E3,3.257138E3,3.6170063E3,6.84328E3,1.8257598E3,7.421294E2,2.9376465E3,3.6045437E3,3.5061982E3,1.1571578E3,1.7896957E3,3.709003E3,6.4971206E3,1.0004026E4,1.168899E4,2.7533703E4,5.8493363E4,2.9893472E3,3.7907964E3,2.71469E3,5.618685E3,1.167832E4,1.228266E4,3.0819615E4,1.8324452E5,1.412499E4,4.5270715E4,4.330049E4,5.058098E5,8.505676E3,3.9913022E3,5.6473496E3,4.0563992E3,3.8605662E3,6.5416963E3,2.902307E3,5.6196084E3,3.7781743E3,6.021865E3,4.03738E3,6.861752E3,4.575569E3,1.0343795E4,5.5479355E3,1.4322976E4],"tree_param":{"num_deleted":"0","num_feature":"13","num_nodes":"127","size_leaf_vector":"1"}},{"base_weights":[-7.4134153E-1,1.283413E0,-1.0039133E0,2.0900588E0,-3.9814033E-2,-1.0740039E0,-2.8361043E-1,2.553447E0,1.5046415E0,5.2575785E-1,-5.9636533E-1,-8.30825E-1,-1.1083272E0,2.4098393E-1,-6.609782E-1,2.7824533E0,1.837531E0,1.7416697E0,9.598908E-1,8.2650924E-1,2.7355912E-1,-2.736486E-1,-8.216508E-1,-1.6295338E-1,-9.243088E-1,-1.0458889E0,-1.1328056E0,6.5453625E-1,-2.3879072E-1,-4.2503685E-1,-8.340211E-1,3.078152E0,2.479981E0,2.2172885E0,1.6447082E0,7.197861E-1,1.8132252E0,1.2451437E0,7.0330334E-1,1.0896944E0,4.9397314E-1,3.9797047E-1,-2.681823E-1,5.8276977E-2,-4.352098E-1,-4.9637458E-1,-9.1565746E-1,7.786775E-2,-3.0650863E-1,-6.87681E-1,-9.8389775E-1,-8.6431116E-1,-1.0663553E0,-1.1003168E0,-1.1363176E0,8.951097E-1,3.6659062E-1,1.9747349E-2,-5.4561734E-1,-1.3604008E-1,-6.5622956E-1,-5.335038E-1,-9.173282E-1,1.1160977E-1,1.5684466E-1,1.384276E-1,1.137066E-1,7.322186E-2,1.149156E-1,9.6812546E-2,7.060238E-2,1.4111121E-2,4.3414854E-2,1.0716428E-1,8.034584E-2,3.0198405E-2,6.5804236E-2,4.2855613E-2,1.5146959E-2,6.892166E-2,4.2431396E-2,3.6012508E-2,1.333175E-2,3.1031871E-2,8.21255E-3,4.0980983E-3,-2.284924E-2,1.0041665E-2,-1.1156931E-2,-1.5023127E-2,-2.605612E-2,-1.8898454E-2,-3.6283534E-2,-3.8043376E-2,-4.973298E-2,1.697846E-2,-2.5910402E-3,-7.191018E-3,-2.2493524E-2,-2.764056E-2,-4.1521527E-2,-4.2270463E-2,-5.2462257E-2,-3.9463002E-2,-4.706167E-2,-4.830488E-2,-5.416423E-2,-5.2892238E-2,-5.5878945E-2,-5.6388695E-2,-5.6932367E-2,5.5297423E-2,2.7753754E-2,1.1859436E-2,5.9866376E-2,1.7444914E-2,-6.4411587E-3,-1.4022191E-2,-3.5097323E-2,6.3184663E-3,-1.4108347E-2,-2.221334E-2,-3.7279136E-2,-1.7478252E-2,-3.2865662E-2,-3.8891666E-2,-4.9617857E-2],"categories":[],"categories_nodes":[],"categories_segments":[],"categories_sizes":[],"default_left":[0,0,0,0,0,0,0,0,0,0,0,0,0,0,0,0,0,0,0,0,0,0,0,0,0,0,0,0,0,0,0,0,0,0,0,0,0,0,0,0,0,0,0,0,0,0,0,0,0,0,0,0,0,0,0,0,0,0,0,0,0,0,0,0,0,0,0,0,0,0,0,0,0,0,0,0,0,0,0,0,0,0,0,0,0,0,0,0,0,0,0,0,0,0,0,0,0,0,0,0,0,0,0,0,0,0,0,0,0,0,0,0,0,0,0,0,0,0,0,0,0,0,0,0,0,0,0],"id":2,"left_children":[1,3,5,7,9,11,13,15,17,19,21,23,25,27,29,31,33,35,37,39,41,43,45,47,49,51,53,55,57,59,61,63,65,67,69,71,73,75,77,79,81,83,85,87,89,91,93,95,97,99,101,103,105,107,109,111,113,115,117,119,121,123,125,-1,-1,-1,-1,-1,-1,-1,-1,-1,-1,-1,-1,-1,-1,-1,-1,-1,-1,-1,-1,-1,-1,-1,-1,-1,-1,-1,-1,-1,-1,-1,-1,-1,-1,-1,-1,-1,-1,-1,-1,-1,-1,-1,-1,-1,-1,-1,-1,-1,-1,-1,-1,-1,-1,-1,-1,-1,-1,-1,-1,-1,-1,-1,-1],"loss_changes":[6.10738E5,1.4075783E5,5.13395E4,2.2221406E4,1.5721515E4,7.734125E3,1.7852293E4,7.4921562E3,4.6725938E3,1.8787324E3,1.8299932E3,7.1566016E3,1.24E3,7.4862363E3,2.141045E3,3.0909688E3,8.0810547E2,1.8430703E3,8.026221E2,9.882529E2,9.0832166E2,5.550852E2,4.5284375E2,4.8664105E2,1.4171562E3,8.490781E2,6.5375E1,1.4033828E3,1.3856256E3,1.482748E3,7.5699414E2,8.633125E2,1.0113281E3,2.2417969E2,4.962461E2,1.0712714E2,1.6016953E3,2.3560547E2,3.5577075E2,4.3775098E2,2.5666687E2,5.702218E2,1.664479E2,1.3602362E2,8.0438965E1,9.002374E1,1.3986523E2,1.7846478E2,2.0562433E2,3.8904102E2,7.260156E2,1.3304688E2,3.478125E2,4.0570312E1,9.1875E0,7.908203E2,9.914387E2,4.6366394E2,3.309287E2,3.7830743E2,2.3318506E2,1.4937878E2,2.471543E2,0E0,0E0,0E0,0E0,0E0,0E0,0E0,0E0,0E0,0E0,0E0,0E0,0E0,0E0,0E0,0E0,0E0,0E0,0E0,0E0,0E0,0E0,0E0,0E0,0E0,0E0,0E0,0E0,0E0,0E0,0E0,0E0,0E0,0E0,0E0,0E0,0E0,0E0,0E0,0E0,0E0,0E0,0E0,0E0,0E0,0E0,0E0,0E0,0E0,0E0,0E0,0E0,0E0,0E0,0E0,0E0,0E0,0E0,0E0,0E0,0E0,0E0,0E0,0E0],"parents":[2147483647,0,0,1,1,2,2,3,3,4,4,5,5,6,6,7,7,8,8,9,9,10,10,11,11,12,12,13,13,14,14,15,15,16,16,17,17,18,18,19,19,20,20,21,21,22,22,23,23,24,24,25,25,26,26,27,27,28,28,29,29,30,30,31,31,32,32,33,33,34,34,35,35,36,36,37,37,38,38,39,39,40,40,41,41,42,42,43,43,44,44,45,45,46,46,47,47,48,48,49,49,50,50,51,51,52,52,53,53,54,54,55,55,56,56,57,57,58,58,59,59,60,60,61,61,62,62],"right_children":[2,4,6,8,10,12,14,16,18,20,22,24,26,28,30,32,34,36,38,40,42,44,46,48,50,52,54,56,58,60,62,64,66,68,70,72,74,76,78,80,82,84,86,88,90,92,94,96,98,100,102,104,106,108,110,112,114,116,118,120,122,124,126,-1,-1,-1,-1,-1,-1,-1,-1,-1,-1,-1,-1,-1,-1,-1,-1,-1,-1,-1,-1,-1,-1,-1,-1,-1,-1,-1,-1,-1,-1,-1,-1,-1,-1,-1,-1,-1,-1,-1,-1,-1,-1,-1,-1,-1,-1,-1,-1,-1,-1,-1,-1,-1,-1,-1,-1,-1,-1,-1,-1,-1,-1,-1,-1],"split_conditions":[3.8419907E0,8.482786E0,2.0050936E1,3.797664E0,8.674901E0,3.915574E0,3.8804548E0,8.351174E0,8.375056E0,3.8080664E0,8.793764E0,8.67727E0,3.971858E0,8.450484E0,8.450484E0,3.7660587E0,3.7626326E0,2.257033E1,-5.5764136E0,8.5742E0,3.714066E1,4.6798816E0,4.6798816E0,3.8745027E0,4.6798816E0,4.6798816E0,3.907662E0,3.043105E1,3.043105E1,3.9065142E0,-5.116672E0,3.5431534E1,8.264813E0,3.295044E1,-7.5703163E0,1.8380112E1,8.274687E0,2.14161E1,3.729193E1,-7.5703163E0,-5.9876666E0,8.580636E0,-6.6993213E0,-8.693224E0,8.716595E0,8.916519E0,8.871075E0,-8.493011E0,-2.4111147E0,8.85029E0,8.833376E0,-7.301017E0,8.609374E0,-9.5642185E0,-6.6993213E0,3.8647113E0,1.1029585E1,8.533515E0,-4.5954595E0,2.5954643E1,2.944427E-1,3.899112E0,3.9065142E0,1.1160977E-1,1.5684466E-1,1.384276E-1,1.137066E-1,7.322186E-2,1.149156E-1,9.6812546E-2,7.060238E-2,1.4111121E-2,4.3414854E-2,1.0716428E-1,8.034584E-2,3.0198405E-2,6.5804236E-2,4.2855613E-2,1.5146959E-2,6.892166E-2,4.2431396E-2,3.6012508E-2,1.333175E-2,3.1031871E-2,8.21255E-3,4.0980983E-3,-2.284924E-2,1.0041665E-2,-1.1156931E-2,-1.5023127E-2,-2.605612E-2,-1.8898454E-2,-3.6283534E-2,-3.8043376E-2,-4.973298E-2,1.697846E-2,-2.5910402E-3,-7.191018E-3,-2.2493524E-2,-2.764056E-2,-4.1521527E-2,-4.2270463E-2,-5.2462257E-2,-3.9463002E-2,-4.706167E-2,-4.830488E-2,-5.416423E-2,-5.2892238E-2,-5.5878945E-2,-5.6388695E-2,-5.6932367E-2,5.5297423E-2,2.7753754E-2,1.1859436E-2,5.9866376E-2,1.7444914E-2,-6.4411587E-3,-1.4022191E-2,-3.5097323E-2,6.3184663E-3,-1.4108347E-2,-2.221334E-2,-3.7279136E-2,-1.7478252E-2,-3.2865662E-2,-3.8891666E-2,-4.9617857E-2],"split_indices":[8,2,9,8,2,8,8,2,2,8,2,2,8,2,2,8,8,9,6,2,9,3,3,8,3,3,3,9,9,8,6,9,2,9,6,9,2,9,9,6,6,2,6,6,2,2,2,6,6,2,2,6,2,6,6,8,4,2,6,9,6,8,8,0,0,0,0,0,0,0,0,0,0,0,0,0,0,0,0,0,0,0,0,0,0,0,0,0,0,0,0,0,0,0,0,0,0,0,0,0,0,0,0,0,0,0,0,0,0,0,0,0,0,0,0,0,0,0,0,0,0,0,0,0,0,0,0],"split_type":[0,0,0,0,0,0,0,0,0,0,0,0,0,0,0,0,0,0,0,0,0,0,0,0,0,0,0,0,0,0,0,0,0,0,0,0,0,0,0,0,0,0,0,0,0,0,0,0,0,0,0,0,0,0,0,0,0,0,0,0,0,0,0,0,0,0,0,0,0,0,0,0,0,0,0,0,0,0,0,0,0,0,0,0,0,0,0,0,0,0,0,0,0,0,0,0,0,0,0,0,0,0,0,0,0,0,0,0,0,0,0,0,0,0,0,0,0,0,0,0,0,0,0,0,0,0,0],"sum_hessian":[1.1487709E6,1.3187173E5,1.0168992E6,8.192765E4,4.9944086E4,9.2672194E5,9.017724E4,4.572812E4,3.6199527E4,2.4771324E4,2.5172762E4,1.1462605E5,8.120959E5,3.7728992E4,5.2448254E4,3.464351E4,1.1084608E4,2.5222633E4,1.09768955E4,1.129708E4,1.3474244E4,1.0349516E4,1.4823247E4,1.4074819E4,1.0055123E5,2.2872366E5,5.8337225E5,2.0262727E4,1.7466268E4,2.2192531E4,3.025572E4,1.751326E4,1.7130252E4,3.7293286E3,7.3552803E3,1.651313E3,2.357132E4,5.196263E3,5.780632E3,6.304844E3,4.992236E3,1.0957997E4,2.5162473E3,3.3885076E3,6.961008E3,3.3249016E3,1.1498346E4,5.256775E3,8.818045E3,2.0230074E4,8.032115E4,2.317344E4,2.0555022E5,5.694005E4,5.264322E5,1.1038307E4,9.224419E3,9.479549E3,7.9867173E3,9.863941E3,1.232859E4,6.568455E3,2.3687266E4,1.1396539E3,1.6373606E4,7.126907E3,1.0003346E4,3.6421317E2,3.3651155E3,3.261291E3,4.093989E3,4.1917654E2,1.2321365E3,9.062841E3,1.450848E4,5.185987E2,4.6776646E3,4.1754126E3,1.6052192E3,2.8666174E3,3.4382266E3,2.5008704E3,2.4913655E3,5.6108384E3,5.347158E3,8.816837E2,1.6345635E3,2.2493457E3,1.1391619E3,2.711977E3,4.2490303E3,2.1943936E3,1.130508E3,3.8890688E3,7.6092764E3,1.741316E3,3.515459E3,4.13154E3,4.686505E3,1.0404637E4,9.825438E3,2.575449E4,5.456666E4,1.1735077E4,1.1438362E4,2.9702836E4,1.7584739E5,1.6472695E4,4.0467355E4,1.1289707E5,4.1353512E5,6.812166E3,4.2261406E3,7.982318E3,1.2421013E3,2.9477036E3,6.5318457E3,2.963192E3,5.0235254E3,3.5282217E3,6.3357197E3,3.6577283E3,8.670861E3,2.6440781E3,3.924377E3,8.28851E3,1.5398756E4],"tree_param":{"num_deleted":"0","num_feature":"13","num_nodes":"127","size_leaf_vector":"1"}},{"base_weights":[-7.263222E-1,1.1050428E0,-1.0008047E0,1.76668E0,-1.815436E-1,-1.0655237E0,-3.2170305E-1,2.2343934E0,1.3080125E0,3.2170475E-1,-6.2928224E-1,-8.530159E-1,-1.1038623E0,1.3062954E-1,-6.778589E-1,2.4390771E0,1.5496372E0,1.5664133E0,8.3429116E-1,5.78502E-1,9.363178E-2,-3.701477E-1,-8.715614E-1,-9.373584E-1,-2.5058752E-1,-1.0445774E0,-1.1242145E0,6.473811E-1,-1.7664807E-1,-4.50569E-1,-8.3815396E-1,2.705709E0,2.231306E0,1.7727244E0,1.3409235E0,1.8293257E0,1.3230778E0,1.0845088E0,5.8638614E-1,7.5255245E-1,2.6848215E-1,2.0823878E-1,-4.240203E-1,-4.544003E-2,-5.1915085E-1,-5.288202E-1,-9.438587E-1,-7.082834E-1,-9.900267E-1,-3.2411907E-2,-4.216232E-1,-8.716294E-1,-1.0628369E0,-1.0904133E0,-1.1278743E0,8.857653E-1,3.710842E-1,1.0170578E-1,-4.7124845E-1,-2.347732E-1,-7.086901E-1,-6.082115E-1,-9.329662E-1,1.4568958E-1,1.2636359E-1,6.0495477E-2,1.1389624E-1,3.7877478E-2,9.122995E-2,8.0370925E-2,5.7988025E-2,1.05534784E-1,8.303969E-2,8.1100754E-2,5.745257E-2,6.562063E-2,4.5895826E-2,4.132594E-2,1.9801678E-2,4.852134E-2,2.5755031E-2,2.8712913E-2,4.934524E-3,1.888646E-2,-1.937123E-3,-7.285423E-3,-3.14728E-2,1.4992008E-2,-7.6505104E-3,-2.0014692E-2,-3.2444727E-2,-1.46121485E-2,-3.0216327E-2,-4.218344E-2,-5.0265696E-2,-2.8650865E-2,-4.0769275E-2,-4.321076E-2,-5.2324083E-2,9.29714E-3,-6.8937885E-3,-1.0274987E-2,-2.6981054E-2,-3.9967276E-2,-4.7042347E-2,-4.7337305E-2,-5.3801894E-2,-5.2111786E-2,-5.54214E-2,-5.561098E-2,-5.6460597E-2,5.4605372E-2,2.5328403E-2,2.8812928E-2,6.74623E-3,1.917566E-2,-8.267844E-3,-1.3111408E-2,-3.557099E-2,-7.777869E-4,-1.8396154E-2,-2.1957433E-2,-3.7906043E-2,-1.8839722E-2,-3.381212E-2,-4.0723138E-2,-5.0060984E-2],"categories":[],"categories_nodes":[],"categories_segments":[],"categories_sizes":[],"default_left":[0,0,0,0,0,0,0,0,0,0,0,0,0,0,0,0,0,0,0,0,0,0,0,0,0,0,0,0,0,0,0,0,0,0,0,0,0,0,0,0,0,0,0,0,0,0,0,0,0,0,0,0,0,0,0,0,0,0,0,0,0,0,0,0,0,0,0,0,0,0,0,0,0,0,0,0,0,0,0,0,0,0,0,0,0,0,0,0,0,0,0,0,0,0,0,0,0,0,0,0,0,0,0,0,0,0,0,0,0,0,0,0,0,0,0,0,0,0,0,0,0,0,0,0,0,0,0],"id":3,"left_children":[1,3,5,7,9,11,13,15,17,19,21,23,25,27,29,31,33,35,37,39,41,43,45,47,49,51,53,55,57,59,61,63,65,67,69,71,73,75,77,79,81,83,85,87,89,91,93,95,97,99,101,103,105,107,109,111,113,115,117,119,121,123,125,-1,-1,-1,-1,-1,-1,-1,-1,-1,-1,-1,-1,-1,-1,-1,-1,-1,-1,-1,-1,-1,-1,-1,-1,-1,-1,-1,-1,-1,-1,-1,-1,-1,-1,-1,-1,-1,-1,-1,-1,-1,-1,-1,-1,-1,-1,-1,-1,-1,-1,-1,-1,-1,-1,-1,-1,-1,-1,-1,-1,-1,-1,-1,-1],"loss_changes":[5.612281E5,1.23879125E5,4.2673688E4,2.0613656E4,1.113633E4,7.221375E3,1.3610349E4,6.665125E3,5.9384297E3,1.3628135E3,1.64171E3,6.8840156E3,9.049375E2,5.909703E3,1.721707E3,2.0231719E3,5.0758008E2,2.0061719E3,1.0618379E3,5.903999E2,7.313041E2,6.1149304E2,3.3441602E2,1.4332188E3,6.2095325E2,6.051875E2,6.79375E1,9.1377E2,1.9139907E3,1.0888174E3,6.037031E2,5.881172E2,9.777969E2,2.772422E2,2.7152148E2,7.1198047E2,8.4656055E2,3.2239746E2,3.9305664E2,3.6212573E2,2.043468E2,4.2246646E2,1.276651E2,1.477476E2,1.3333984E2,4.1920776E1,6.786719E1,3.214541E2,6.854297E2,1.6845093E2,2.377749E2,9.09834E1,2.6503125E2,4.6273438E1,9.3125E0,5.8233887E2,3.1146936E2,9.0331165E2,5.690491E2,3.1084607E2,1.1827051E2,1.271875E2,1.579043E2,0E0,0E0,0E0,0E0,0E0,0E0,0E0,0E0,0E0,0E0,0E0,0E0,0E0,0E0,0E0,0E0,0E0,0E0,0E0,0E0,0E0,0E0,0E0,0E0,0E0,0E0,0E0,0E0,0E0,0E0,0E0,0E0,0E0,0E0,0E0,0E0,0E0,0E0,0E0,0E0,0E0,0E0,0E0,0E0,0E0,0E0,0E0,0E0,0E0,0E0,0E0,0E0,0E0,0E0,0E0,0E0,0E0,0E0,0E0,0E0,0E0,0E0,0E0,0E0],"parents":[2147483647,0,0,1,1,2,2,3,3,4,4,5,5,6,6,7,7,8,8,9,9,10,10,11,11,12,12,13,13,14,14,15,15,16,16,17,17,18,18,19,19,20,20,21,21,22,22,23,23,24,24,25,25,26,26,27,27,28,28,29,29,30,30,31,31,32,32,33,33,34,34,35,35,36,36,37,37,38,38,39,39,40,40,41,41,42,42,43,43,44,44,45,45,46,46,47,47,48,48,49,49,50,50,51,51,52,52,53,53,54,54,55,55,56,56,57,57,58,58,59,59,60,60,61,61,62,62],"right_children":[2,4,6,8,10,12,14,16,18,20,22,24,26,28,30,32,34,36,38,40,42,44,46,48,50,52,54,56,58,60,62,64,66,68,70,72,74,76,78,80,82,84,86,88,90,92,94,96,98,100,102,104,106,108,110,112,114,116,118,120,122,124,126,-1,-1,-1,-1,-1,-1,-1,-1,-1,-1,-1,-1,-1,-1,-1,-1,-1,-1,-1,-1,-1,-1,-1,-1,-1,-1,-1,-1,-1,-1,-1,-1,-1,-1,-1,-1,-1,-1,-1,-1,-1,-1,-1,-1,-1,-1,-1,-1,-1,-1,-1,-1,-1,-1,-1,-1,-1,-1,-1,-1,-1,-1,-1,-1],"split_conditions":[3.8463607E0,8.511721E0,2.0050936E1,3.7936933E0,8.693522E0,3.927254E0,3.8849707E0,8.375056E0,8.375056E0,3.8130286E0,8.833376E0,1.6226044E1,3.971858E0,8.375056E0,8.441042E0,3.758827E0,4.6798816E0,3.8173063E0,-5.116672E0,8.609374E0,3.6503025E1,4.6798816E0,3.907662E0,4.6798816E0,3.8874319E0,4.6798816E0,3.907662E0,3.8647113E0,2.9642143E1,3.915574E0,-2.4111147E0,8.264813E0,2.7205488E1,2.4452087E1,3.7660587E0,8.264813E0,8.274687E0,3.815975E0,3.8191519E0,-5.5764136E0,3.907662E0,8.616824E0,-4.5954595E0,3.801146E0,8.761276E0,1.4106273E1,8.906588E0,8.831186E0,8.833376E0,-8.281971E0,-4.5954595E0,-7.301017E0,8.524392E0,-9.86462E0,2.1436253E1,3.2395546E1,2.9642143E1,8.533515E0,8.5477705E0,-1.2882068E0,8.250775E0,-1.1299958E1,3.9107919E0,1.4568958E-1,1.2636359E-1,6.0495477E-2,1.1389624E-1,3.7877478E-2,9.122995E-2,8.0370925E-2,5.7988025E-2,1.05534784E-1,8.303969E-2,8.1100754E-2,5.745257E-2,6.562063E-2,4.5895826E-2,4.132594E-2,1.9801678E-2,4.852134E-2,2.5755031E-2,2.8712913E-2,4.934524E-3,1.888646E-2,-1.937123E-3,-7.285423E-3,-3.14728E-2,1.4992008E-2,-7.6505104E-3,-2.0014692E-2,-3.2444727E-2,-1.46121485E-2,-3.0216327E-2,-4.218344E-2,-5.0265696E-2,-2.8650865E-2,-4.0769275E-2,-4.321076E-2,-5.2324083E-2,9.29714E-3,-6.8937885E-3,-1.0274987E-2,-2.6981054E-2,-3.9967276E-2,-4.7042347E-2,-4.7337305E-2,-5.3801894E-2,-5.2111786E-2,-5.54214E-2,-5.561098E-2,-5.6460597E-2,5.4605372E-2,2.5328403E-2,2.8812928E-2,6.74623E-3,1.917566E-2,-8.267844E-3,-1.3111408E-2,-3.557099E-2,-7.777869E-4,-1.8396154E-2,-2.1957433E-2,-3.7906043E-2,-1.8839722E-2,-3.381212E-2,-4.0723138E-2,-5.0060984E-2],"split_indices":[8,2,9,8,2,8,8,2,2,8,2,9,8,2,2,8,3,8,6,2,9,3,3,3,8,3,3,8,9,8,6,2,9,9,8,2,2,8,8,6,3,2,6,8,2,0,2,2,2,6,6,6,2,6,0,9,9,2,2,6,2,6,8,0,0,0,0,0,0,0,0,0,0,0,0,0,0,0,0,0,0,0,0,0,0,0,0,0,0,0,0,0,0,0,0,0,0,0,0,0,0,0,0,0,0,0,0,0,0,0,0,0,0,0,0,0,0,0,0,0,0,0,0,0,0,0,0],"split_type":[0,0,0,0,0,0,0,0,0,0,0,0,0,0,0,0,0,0,0,0,0,0,0,0,0,0,0,0,0,0,0,0,0,0,0,0,0,0,0,0,0,0,0,0,0,0,0,0,0,0,0,0,0,0,0,0,0,0,0,0,0,0,0,0,0,0,0,0,0,0,0,0,0,0,0,0,0,0,0,0,0,0,0,0,0,0,0,0,0,0,0,0,0,0,0,0,0,0,0,0,0,0,0,0,0,0,0,0,0,0,0,0,0,0,0,0,0,0,0,0,0,0,0,0,0,0,0],"sum_hessian":[1.1164739E6,1.4552419E5,9.709497E5,9.61024E4,4.9421785E4,8.864679E5,8.4481836E4,4.7580074E4,4.8522324E4,2.3268635E4,2.615315E4,1.3548842E5,7.5097944E5,3.7216273E4,4.7265562E4,3.6628664E4,1.0951408E4,3.1394988E4,1.7127336E4,1.0944364E4,1.23242705E4,1.2638217E4,1.3514933E4,1.1884857E5,1.663985E4,1.919346E5,5.590448E5,1.3877405E4,2.3338867E4,1.954938E4,2.771618E4,1.6036737E4,2.0591928E4,5.2898086E3,5.6616E3,1.5087327E4,1.6307661E4,8.52223E3,8.605105E3,7.008337E3,3.936027E3,1.009079E4,2.2334805E3,3.9756924E3,8.662524E3,2.35567E3,1.1159263E4,2.2219932E4,9.662864E4,7.312766E3,9.327083E3,1.8333688E4,1.736009E5,5.4645266E4,5.0439956E5,7.448641E3,6.4287637E3,1.2000665E4,1.1338201E4,1.0648704E4,8.900678E3,8.093912E3,1.9622268E4,7.396305E3,8.640432E3,9.0000757E2,1.969192E4,2.579226E2,5.031886E3,2.2880125E3,3.3735876E3,5.6473535E3,9.439974E3,5.9973213E3,1.031034E4,3.5959607E3,4.9262695E3,3.8035405E3,4.8015654E3,3.6532263E3,3.3551106E3,1.404427E3,2.5316E3,5.9838535E3,4.106937E3,9.4923E2,1.2842506E3,9.4396234E2,3.0317302E3,4.523068E3,4.1394565E3,5.7111536E2,1.7845546E3,4.248197E3,6.9110664E3,9.821755E3,1.2398177E4,2.9934656E4,6.6693984E4,2.3814326E3,4.9313335E3,3.2949092E3,6.032174E3,8.974335E3,9.359352E3,1.7732408E4,1.558685E5,1.4888067E4,3.97572E4,3.9771914E4,4.6462766E5,4.8225474E3,2.6260938E3,3.4392869E3,2.9894766E3,5.8389287E3,6.161737E3,6.0633667E3,5.274835E3,4.024273E3,6.6244316E3,1.3808579E3,7.5198193E3,1.8403219E3,6.2535903E3,7.1760176E3,1.2446249E4],"tree_param":{"num_deleted":"0","num_feature":"13","num_nodes":"127","size_leaf_vector":"1"}},{"base_weights":[-7.1108216E-1,-9.94682E-1,9.7793627E-1,-4.4008076E-1,-1.0661439E0,1.602031E0,3.8646646E-2,3.2702464E-1,-7.527695E-1,-1.0922347E0,-8.1013703E-1,1.9525352E0,8.985595E-1,5.1747715E-1,-4.02011E-1,5.148506E-1,4.8413668E-2,-5.149816E-1,-9.3045205E-1,-1.1161228E0,-1.031654E0,-3.0365497E-1,-8.9600885E-1,2.2889209E0,1.6937542E0,1.1798546E0,4.6532518E-1,1.0064719E0,9.5739156E-2,4.885691E-2,-6.2286735E-1,1.0452819E-2,6.402199E-1,2.9583398E-1,-1.3321593E-1,-2.791837E-1,-6.5260744E-1,-6.829515E-1,-9.9075055E-1,-1.0806409E0,-1.1199766E0,-8.413612E-1,-1.055129E0,-1.4453174E-1,-4.567147E-1,-6.9583327E-1,-9.596477E-1,2.1593356E0,2.5607188E0,1.9622208E0,1.5353777E0,1.4743115E0,9.57174E-1,7.091953E-1,2.56529E-1,1.2044094E0,6.9991505E-1,3.6190426E-1,-2.804626E-1,2.885991E-1,-2.4524142E-1,-2.8362012E-1,-7.226677E-1,7.7502504E-3,-9.188648E-3,3.829802E-2,1.8891333E-2,2.5079986E-2,6.6951886E-3,3.9778342E-3,-1.3162332E-2,-8.985943E-4,-2.1488035E-2,-2.2555282E-2,-3.740235E-2,-2.3326105E-2,-3.6947284E-2,-4.5451637E-2,-5.176267E-2,-5.156095E-2,-5.4956656E-2,-5.5221256E-2,-5.6069106E-2,-3.787551E-2,-4.609227E-2,-4.926293E-2,-5.354709E-2,3.393611E-3,-1.322101E-2,-1.3308617E-2,-2.9056821E-2,-2.8497323E-2,-3.9592482E-2,-4.0947404E-2,-5.0110526E-2,1.1800947E-1,1.00657776E-1,1.0134335E-1,1.3176303E-1,1.3655703E-1,9.510572E-2,9.0888076E-2,6.877629E-2,8.931133E-2,6.777357E-2,5.4271873E-2,2.7142143E-2,4.828105E-2,2.5112122E-2,3.0807411E-2,4.9317046E-3,7.086096E-2,5.1112678E-2,2.4907677E-2,7.429186E-2,2.8252983E-2,-2.454032E-3,-2.7814086E-3,-2.988696E-2,2.6970858E-2,5.1532043E-3,-1.1687296E-3,-1.8035606E-2,-2.5028083E-3,-2.4217747E-2,-2.7858725E-2,-4.3071713E-2],"categories":[],"categories_nodes":[],"categories_segments":[],"categories_sizes":[],"default_left":[0,0,0,0,0,0,0,0,0,0,0,0,0,0,0,0,0,0,0,0,0,0,0,0,0,0,0,0,0,0,0,0,0,0,0,0,0,0,0,0,0,0,0,0,0,0,0,0,0,0,0,0,0,0,0,0,0,0,0,0,0,0,0,0,0,0,0,0,0,0,0,0,0,0,0,0,0,0,0,0,0,0,0,0,0,0,0,0,0,0,0,0,0,0,0,0,0,0,0,0,0,0,0,0,0,0,0,0,0,0,0,0,0,0,0,0,0,0,0,0,0,0,0,0,0,0,0],"id":4,"left_children":[1,3,5,7,9,11,13,15,17,19,21,23,25,27,29,31,33,35,37,39,41,43,45,47,49,51,53,55,57,59,61,63,65,67,69,71,73,75,77,79,81,83,85,87,89,91,93,95,97,99,101,103,105,107,109,111,113,115,117,119,121,123,125,-1,-1,-1,-1,-1,-1,-1,-1,-1,-1,-1,-1,-1,-1,-1,-1,-1,-1,-1,-1,-1,-1,-1,-1,-1,-1,-1,-1,-1,-1,-1,-1,-1,-1,-1,-1,-1,-1,-1,-1,-1,-1,-1,-1,-1,-1,-1,-1,-1,-1,-1,-1,-1,-1,-1,-1,-1,-1,-1,-1,-1,-1,-1,-1],"loss_changes":[5.1981062E5,3.682525E4,9.1457234E4,2.5440777E4,5.497125E3,2.3110469E4,1.314166E4,1.6072634E3,3.1830508E3,1.07975E3,3.3109219E3,5.4421875E3,3.798504E3,6.155479E3,3.229733E3,1.160125E3,5.5589685E2,1.0456191E3,6.428906E2,7.20625E1,9.428594E2,2.687735E2,8.2858203E2,9.5246875E2,1.5006016E3,1.2379043E3,6.248069E2,8.378623E2,1.6049602E3,7.520348E2,7.368711E2,1.025952E2,4.8451123E2,1.7441336E2,1.9738705E2,4.6721393E2,3.9098926E2,1.0207251E2,1.2515625E2,4.6859375E1,9.375E0,1.5590234E2,2.0670312E2,1.3786813E2,1.3322034E2,1.8939258E2,2.9494922E2,5.3621094E2,3.438828E2,6.010703E2,1.00171875E3,2.991953E2,5.7149414E2,2.9993164E2,3.755043E2,3.2407812E2,8.5956226E2,7.8377686E2,4.7374005E2,2.7338287E2,1.2270892E2,2.3206586E2,3.858125E2,0E0,0E0,0E0,0E0,0E0,0E0,0E0,0E0,0E0,0E0,0E0,0E0,0E0,0E0,0E0,0E0,0E0,0E0,0E0,0E0,0E0,0E0,0E0,0E0,0E0,0E0,0E0,0E0,0E0,0E0,0E0,0E0,0E0,0E0,0E0,0E0,0E0,0E0,0E0,0E0,0E0,0E0,0E0,0E0,0E0,0E0,0E0,0E0,0E0,0E0,0E0,0E0,0E0,0E0,0E0,0E0,0E0,0E0,0E0,0E0,0E0,0E0,0E0,0E0],"parents":[2147483647,0,0,1,1,2,2,3,3,4,4,5,5,6,6,7,7,8,8,9,9,10,10,11,11,12,12,13,13,14,14,15,15,16,16,17,17,18,18,19,19,20,20,21,21,22,22,23,23,24,24,25,25,26,26,27,27,28,28,29,29,30,30,31,31,32,32,33,33,34,34,35,35,36,36,37,37,38,38,39,39,40,40,41,41,42,42,43,43,44,44,45,45,46,46,47,47,48,48,49,49,50,50,51,51,52,52,53,53,54,54,55,55,56,56,57,57,58,58,59,59,60,60,61,61,62,62],"right_children":[2,4,6,8,10,12,14,16,18,20,22,24,26,28,30,32,34,36,38,40,42,44,46,48,50,52,54,56,58,60,62,64,66,68,70,72,74,76,78,80,82,84,86,88,90,92,94,96,98,100,102,104,106,108,110,112,114,116,118,120,122,124,126,-1,-1,-1,-1,-1,-1,-1,-1,-1,-1,-1,-1,-1,-1,-1,-1,-1,-1,-1,-1,-1,-1,-1,-1,-1,-1,-1,-1,-1,-1,-1,-1,-1,-1,-1,-1,-1,-1,-1,-1,-1,-1,-1,-1,-1,-1,-1,-1,-1,-1,-1,-1,-1,-1,-1,-1,-1,-1,-1,-1,-1,-1,-1,-1],"split_conditions":[2.4452087E1,3.8900523E0,3.8298986E0,8.674901E0,1.6226044E1,8.390585E0,3.8632867E0,8.533515E0,8.833376E0,8.216109E0,3.915574E0,3.7750227E0,8.511721E0,8.384962E0,8.375056E0,1.8380112E1,3.8445559E0,-7.0117517E0,4.6798816E0,3.907662E0,4.6798816E0,8.502427E0,2.944427E-1,1.156105E1,8.264813E0,3.7873986E0,-6.6993213E0,3.3467037E1,3.3467037E1,3.8874319E0,-7.0117517E0,-2.4111147E0,3.8647113E0,-7.5703163E0,-7.0117517E0,1.676139E1,3.8388047E0,1.4106273E1,8.912439E0,-9.86462E0,2.1488745E1,-8.493011E0,-2.4111147E0,-4.5954595E0,-3.9937642E0,3.9346564E0,8.364306E0,8.264813E0,3.6667595E1,-2.6735023E-1,-9.238756E0,1.8153237E0,3.9256424E1,1.7268805E1,3.7873986E0,8.295701E0,1.1029585E1,8.56411E0,8.5477705E0,8.292416E0,8.280757E0,8.540813E0,8.540813E0,7.7502504E-3,-9.188648E-3,3.829802E-2,1.8891333E-2,2.5079986E-2,6.6951886E-3,3.9778342E-3,-1.3162332E-2,-8.985943E-4,-2.1488035E-2,-2.2555282E-2,-3.740235E-2,-2.3326105E-2,-3.6947284E-2,-4.5451637E-2,-5.176267E-2,-5.156095E-2,-5.4956656E-2,-5.5221256E-2,-5.6069106E-2,-3.787551E-2,-4.609227E-2,-4.926293E-2,-5.354709E-2,3.393611E-3,-1.322101E-2,-1.3308617E-2,-2.9056821E-2,-2.8497323E-2,-3.9592482E-2,-4.0947404E-2,-5.0110526E-2,1.1800947E-1,1.00657776E-1,1.0134335E-1,1.3176303E-1,1.3655703E-1,9.510572E-2,9.0888076E-2,6.877629E-2,8.931133E-2,6.777357E-2,5.4271873E-2,2.7142143E-2,4.828105E-2,2.5112122E-2,3.0807411E-2,4.9317046E-3,7.086096E-2,5.1112678E-2,2.4907677E-2,7.429186E-2,2.8252983E-2,-2.454032E-3,-2.7814086E-3,-2.988696E-2,2.6970858E-2,5.1532043E-3,-1.1687296E-3,-1.8035606E-2,-2.5028083E-3,-2.4217747E-2,-2.7858725E-2,-4.3071713E-2],"split_indices":[9,8,8,2,9,2,8,2,2,2,8,8,2,2,2,9,8,6,3,3,3,2,6,4,2,8,6,9,9,8,6,6,8,6,6,0,8,0,2,6,0,6,6,6,6,8,2,2,9,11,6,3,9,0,8,2,4,2,2,2,2,2,2,0,0,0,0,0,0,0,0,0,0,0,0,0,0,0,0,0,0,0,0,0,0,0,0,0,0,0,0,0,0,0,0,0,0,0,0,0,0,0,0,0,0,0,0,0,0,0,0,0,0,0,0,0,0,0,0,0,0,0,0,0,0,0,0],"split_type":[0,0,0,0,0,0,0,0,0,0,0,0,0,0,0,0,0,0,0,0,0,0,0,0,0,0,0,0,0,0,0,0,0,0,0,0,0,0,0,0,0,0,0,0,0,0,0,0,0,0,0,0,0,0,0,0,0,0,0,0,0,0,0,0,0,0,0,0,0,0,0,0,0,0,0,0,0,0,0,0,0,0,0,0,0,0,0,0,0,0,0,0,0,0,0,0,0,0,0,0,0,0,0,0,0,0,0,0,0,0,0,0,0,0,0,0,0,0,0,0,0,0,0,0,0,0,0],"sum_hessian":[1.0851845E6,9.291698E5,1.560147E5,1.0606077E5,8.23109E5,9.373404E4,6.2280668E4,3.0713254E4,7.5347516E4,7.469776E5,7.613139E4,6.256119E4,3.1172844E4,2.984745E4,3.2433217E4,1.8345059E4,1.2368195E4,3.222524E4,4.3122277E4,5.357174E5,2.1126025E5,1.1037202E4,6.5094184E4,2.7198453E4,3.536274E4,1.8899709E4,1.2273134E4,1.382098E4,1.6026469E4,1.0663979E4,2.1769238E4,3.6522122E3,1.4692846E4,5.235559E3,7.132636E3,1.1877767E4,2.0347475E4,8.450164E3,3.4672113E4,5.251229E4,4.832051E5,2.3203797E4,1.8805645E5,5.4123667E3,5.6248354E3,1.5705273E4,4.938891E4,1.842357E4,8.774883E3,1.3116818E4,2.2245922E4,8.13584E3,1.0763869E4,5.659981E3,6.613153E3,8.396562E3,5.4244185E3,9.385914E3,6.640555E3,5.8749077E3,4.7890713E3,4.9492603E3,1.6819979E4,2.093976E3,1.558236E3,9.931632E3,4.7612144E3,2.3047725E3,2.9307866E3,2.7056687E3,4.426968E3,4.3437007E3,7.534066E3,6.5416978E3,1.3805776E4,1.7387706E3,6.711394E3,1.2232226E4,2.2439887E4,1.431394E4,3.8198348E4,4.0115277E4,4.430898E5,1.1369307E4,1.1834491E4,3.4717105E4,1.5333936E5,1.9528951E3,3.4594714E3,2.223245E3,3.4015906E3,6.7985938E3,8.90668E3,1.1475293E4,3.7913617E4,7.754129E3,1.0669441E4,1.0785706E3,7.6963125E3,9.4778E2,1.2169039E4,8.037337E3,1.4208584E4,2.2407068E3,5.8951333E3,8.218172E3,2.5456973E3,2.5262083E3,3.133773E3,2.0168049E3,4.596348E3,3.8693171E3,4.5272446E3,4.317632E3,1.1067865E3,6.2808364E3,3.1050771E3,3.887148E3,2.7534072E3,2.497169E3,3.3777385E3,1.6397113E3,3.1493599E3,2.2881477E3,2.6611125E3,7.6735327E3,9.146445E3],"tree_param":{"num_deleted":"0","num_feature":"13","num_nodes":"127","size_leaf_vector":"1"}},{"base_weights":[-6.9554424E-1,9.18852E-1,-9.8075324E-1,1.4372684E0,-1.7576712E-1,-1.0689124E0,-4.8422852E-1,1.7520666E0,1.0229453E0,2.5521478E-1,-6.3557416E-1,-9.116159E-1,-1.095295E0,-2.3362214E-2,-8.133344E-1,1.9092071E0,1.2395235E0,1.3304372E0,7.882559E-1,5.36291E-1,9.499123E-2,-4.0757692E-1,-8.773394E-1,-6.7503005E-1,-9.670586E-1,-1.1084093E0,-1.0468441E0,2.8604317E-1,-3.2408112E-1,-5.9465647E-1,-9.2763627E-1,2.0897725E0,1.7102449E0,1.5162823E0,1.120576E0,1.5789143E0,1.1719795E0,9.9015963E-1,6.0053074E-1,7.165859E-1,2.4390008E-1,3.5347432E-1,-7.320696E-2,-8.218068E-2,-5.536004E-1,-6.0593814E-1,-9.491133E-1,-5.5683905E-1,-8.0451757E-1,-8.365587E-1,-1.0260857E0,-1.0713421E0,-1.1124343E0,-9.2971677E-1,-1.0704913E0,5.1947045E-1,4.0474102E-2,-1.1302866E-1,-5.6222516E-1,-4.4338322E-1,-7.5506276E-1,-6.8772393E-1,-9.6545666E-1,1.18180536E-1,1.0001459E-1,9.451828E-2,7.668063E-2,2.6765186E-2,7.7873446E-2,6.2122464E-2,4.412826E-2,5.0610792E-2,8.290947E-2,2.3418766E-2,6.1176796E-2,2.5460128E-2,5.3072322E-2,3.679515E-2,1.3905711E-2,4.366873E-2,2.5545398E-2,2.3010088E-2,4.0322538E-3,2.8392319E-2,7.6657906E-3,1.0361916E-3,-2.2186087E-2,1.1778121E-2,-9.517329E-3,-2.2363348E-2,-3.4035992E-2,-2.5161905E-2,-3.6212873E-2,-4.308352E-2,-4.977372E-2,-1.890804E-2,-3.545985E-2,-3.1019881E-2,-4.200365E-2,-4.359373E-2,-2.9086499E-2,-4.9113743E-2,-5.287702E-2,-5.0199848E-2,-5.4342747E-2,-5.4798078E-2,-5.5692095E-2,-4.0978797E-2,-4.8621934E-2,-5.1074635E-2,-5.3898018E-2,4.041126E-2,1.8777296E-2,1.2380524E-2,-5.3963684E-3,5.5586747E-3,-1.1452412E-2,-1.2583752E-2,-3.450538E-2,-1.3196281E-2,-2.8450286E-2,-2.6618112E-2,-4.5141127E-2,-2.9279325E-2,-3.8775045E-2,-4.0978104E-2,-5.0059408E-2],"categories":[],"categories_nodes":[],"categories_segments":[],"categories_sizes":[],"default_left":[0,0,0,0,0,0,0,0,0,0,0,0,0,0,0,0,0,0,0,0,0,0,0,0,0,0,0,0,0,0,0,0,0,0,0,0,0,0,0,0,0,0,0,0,0,0,0,0,0,0,0,0,0,0,0,0,0,0,0,0,0,0,0,0,0,0,0,0,0,0,0,0,0,0,0,0,0,0,0,0,0,0,0,0,0,0,0,0,0,0,0,0,0,0,0,0,0,0,0,0,0,0,0,0,0,0,0,0,0,0,0,0,0,0,0,0,0,0,0,0,0,0,0,0,0,0,0],"id":5,"left_children":[1,3,5,7,9,11,13,15,17,19,21,23,25,27,29,31,33,35,37,39,41,43,45,47,49,51,53,55,57,59,61,63,65,67,69,71,73,75,77,79,81,83,85,87,89,91,93,95,97,99,101,103,105,107,109,111,113,115,117,119,121,123,125,-1,-1,-1,-1,-1,-1,-1,-1,-1,-1,-1,-1,-1,-1,-1,-1,-1,-1,-1,-1,-1,-1,-1,-1,-1,-1,-1,-1,-1,-1,-1,-1,-1,-1,-1,-1,-1,-1,-1,-1,-1,-1,-1,-1,-1,-1,-1,-1,-1,-1,-1,-1,-1,-1,-1,-1,-1,-1,-1,-1,-1,-1,-1,-1],"loss_changes":[4.8547806E5,8.98338E4,3.9223375E4,1.4009797E4,1.008279E4,3.1569375E3,2.049298E4,4.9142188E3,3.3462812E3,1.1827239E3,1.3565547E3,1.4331016E3,4.128125E2,5.237487E3,1.9696719E3,1.6748125E3,4.699375E2,7.886211E2,9.9657227E2,5.024939E2,7.273484E2,6.020193E2,2.321416E2,3.1719727E2,6.8125E2,7.53125E1,3.8353125E2,1.5903655E3,1.4346772E3,6.562969E2,4.6902344E2,5.9528125E2,7.044258E2,1.7305176E2,2.8967383E2,3.494004E2,4.4426172E2,4.340039E2,5.9493994E2,1.8974512E2,1.2844803E2,2.8288586E2,3.527463E2,1.3497816E2,1.1791406E2,3.00307E1,3.74375E1,2.9521777E2,6.4302246E1,2.4773633E2,8.298047E1,5.1410156E1,9.5625E0,1.0897461E2,4.1171875E1,5.9082275E2,4.1567517E2,3.937149E2,5.3246387E2,3.138684E2,4.3165674E2,6.2773926E1,2.3226953E2,0E0,0E0,0E0,0E0,0E0,0E0,0E0,0E0,0E0,0E0,0E0,0E0,0E0,0E0,0E0,0E0,0E0,0E0,0E0,0E0,0E0,0E0,0E0,0E0,0E0,0E0,0E0,0E0,0E0,0E0,0E0,0E0,0E0,0E0,0E0,0E0,0E0,0E0,0E0,0E0,0E0,0E0,0E0,0E0,0E0,0E0,0E0,0E0,0E0,0E0,0E0,0E0,0E0,0E0,0E0,0E0,0E0,0E0,0E0,0E0,0E0,0E0,0E0,0E0],"parents":[2147483647,0,0,1,1,2,2,3,3,4,4,5,5,6,6,7,7,8,8,9,9,10,10,11,11,12,12,13,13,14,14,15,15,16,16,17,17,18,18,19,19,20,20,21,21,22,22,23,23,24,24,25,25,26,26,27,27,28,28,29,29,30,30,31,31,32,32,33,33,34,34,35,35,36,36,37,37,38,38,39,39,40,40,41,41,42,42,43,43,44,44,45,45,46,46,47,47,48,48,49,49,50,50,51,51,52,52,53,53,54,54,55,55,56,56,57,57,58,58,59,59,60,60,61,61,62,62],"right_children":[2,4,6,8,10,12,14,16,18,20,22,24,26,28,30,32,34,36,38,40,42,44,46,48,50,52,54,56,58,60,62,64,66,68,70,72,74,76,78,80,82,84,86,88,90,92,94,96,98,100,102,104,106,108,110,112,114,116,118,120,122,124,126,-1,-1,-1,-1,-1,-1,-1,-1,-1,-1,-1,-1,-1,-1,-1,-1,-1,-1,-1,-1,-1,-1,-1,-1,-1,-1,-1,-1,-1,-1,-1,-1,-1,-1,-1,-1,-1,-1,-1,-1,-1,-1,-1,-1,-1,-1,-1,-1,-1,-1,-1,-1,-1,-1,-1,-1,-1,-1,-1,-1,-1,-1,-1,-1],"split_conditions":[3.8482494E0,8.511721E0,1.6226044E1,3.801146E0,8.706124E0,3.927254E0,3.899112E0,8.375056E0,8.31618E0,3.804955E0,8.852563E0,4.6798816E0,8.216109E0,8.450484E0,3.927254E0,3.7692447E0,3.7626326E0,3.907662E0,-5.5764136E0,8.609374E0,-7.5703163E0,4.6798816E0,4.6798816E0,8.854676E0,8.833376E0,3.907662E0,-3.9937642E0,3.87097E0,2.7205488E1,8.505785E0,-3.2821095E0,3.728908E0,4.6798816E0,2.6606155E1,-1.2882068E0,1E0,2.257033E1,1E0,3.6162617E1,-4.5954595E0,-8.058865E0,1.7889894E1,3.6162617E1,1.4106273E1,8.783708E0,8.9255905E0,8.912439E0,-9.5642185E0,1.3978712E1,2.306505E1,8.939043E0,-1.1398782E1,2.1436253E1,1.8236439E1,2.944427E-1,8.29892E0,8.319183E0,-7.5703163E0,-6.3596907E0,2.944427E-1,2.257033E1,8.511721E0,8.344426E0,1.18180536E-1,1.0001459E-1,9.451828E-2,7.668063E-2,2.6765186E-2,7.7873446E-2,6.2122464E-2,4.412826E-2,5.0610792E-2,8.290947E-2,2.3418766E-2,6.1176796E-2,2.5460128E-2,5.3072322E-2,3.679515E-2,1.3905711E-2,4.366873E-2,2.5545398E-2,2.3010088E-2,4.0322538E-3,2.8392319E-2,7.6657906E-3,1.0361916E-3,-2.2186087E-2,1.1778121E-2,-9.517329E-3,-2.2363348E-2,-3.4035992E-2,-2.5161905E-2,-3.6212873E-2,-4.308352E-2,-4.977372E-2,-1.890804E-2,-3.545985E-2,-3.1019881E-2,-4.200365E-2,-4.359373E-2,-2.9086499E-2,-4.9113743E-2,-5.287702E-2,-5.0199848E-2,-5.4342747E-2,-5.4798078E-2,-5.5692095E-2,-4.0978797E-2,-4.8621934E-2,-5.1074635E-2,-5.3898018E-2,4.041126E-2,1.8777296E-2,1.2380524E-2,-5.3963684E-3,5.5586747E-3,-1.1452412E-2,-1.2583752E-2,-3.450538E-2,-1.3196281E-2,-2.8450286E-2,-2.6618112E-2,-4.5141127E-2,-2.9279325E-2,-3.8775045E-2,-4.0978104E-2,-5.0059408E-2],"split_indices":[8,2,9,8,2,8,8,2,2,8,2,3,2,2,8,8,8,3,6,2,6,3,3,2,2,3,6,8,9,2,6,8,3,9,6,12,9,12,9,6,6,0,9,0,2,2,2,6,0,0,2,6,0,0,6,2,2,6,6,6,9,2,2,0,0,0,0,0,0,0,0,0,0,0,0,0,0,0,0,0,0,0,0,0,0,0,0,0,0,0,0,0,0,0,0,0,0,0,0,0,0,0,0,0,0,0,0,0,0,0,0,0,0,0,0,0,0,0,0,0,0,0,0,0,0,0,0],"split_type":[0,0,0,0,0,0,0,0,0,0,0,0,0,0,0,0,0,0,0,0,0,0,0,0,0,0,0,0,0,0,0,0,0,0,0,0,0,0,0,0,0,0,0,0,0,0,0,0,0,0,0,0,0,0,0,0,0,0,0,0,0,0,0,0,0,0,0,0,0,0,0,0,0,0,0,0,0,0,0,0,0,0,0,0,0,0,0,0,0,0,0,0,0,0,0,0,0,0,0,0,0,0,0,0,0,0,0,0,0,0,0,0,0,0,0,0,0,0,0,0,0,0,0,0,0,0,0],"sum_hessian":[1.0543749E6,1.5830477E5,8.960701E5,1.07426695E5,5.087806E4,7.609588E5,1.351113E5,6.1043367E4,4.6383332E4,2.6262443E4,2.4615617E4,1.0930451E5,6.516543E5,5.6288406E4,7.882289E4,4.6717523E4,1.4325844E4,2.0075541E4,2.6307791E4,9.534305E3,1.6728139E4,1.2669912E4,1.1945704E4,2.0754355E4,8.855016E4,5.1282466E5,1.3882966E5,2.7743531E4,2.8544875E4,2.7059635E4,5.1763258E4,2.4486045E4,2.2231477E4,4.302754E3,1.002309E4,7.813787E3,1.2261754E4,1.2673163E4,1.3634628E4,5.8967705E3,3.6375342E3,6.593815E3,1.0134324E4,3.9250222E3,8.74489E3,2.5003772E3,9.445327E3,1.0853248E4,9.901108E3,2.758317E4,6.0966984E4,5.025752E4,4.6256716E5,2.3327297E4,1.1550237E5,1.4222821E4,1.3520711E4,1.5134007E4,1.3410867E4,1.3928216E4,1.3131419E4,7.051495E3,4.4711766E4,6.0243384E3,1.8461707E4,1.100224E4,1.1229236E4,1.7393661E2,4.1288174E3,6.6260215E3,3.3970686E3,9.606129E2,6.853174E3,8.378232E2,1.1423931E4,1.6369739E3,1.1036189E4,9.601842E3,4.0327854E3,3.34422E3,2.5525505E3,1.5637946E3,2.0737395E3,3.182975E3,3.4108398E3,8.085483E3,2.0488413E3,9.965184E2,2.928504E3,4.7642153E3,3.9806746E3,1.3413502E3,1.1590269E3,3.2794502E3,6.165877E3,4.9967617E3,5.856486E3,1.6055249E3,8.295584E3,2.4223664E4,3.3595046E3,2.549256E4,3.547442E4,9.42163E3,4.083589E4,3.647615E4,4.26091E5,6.5251255E3,1.680217E4,1.52958545E4,1.0020651E5,4.729481E3,9.49334E3,5.643265E3,7.8774463E3,5.160887E3,9.97312E3,3.9125593E3,9.498308E3,5.7364834E3,8.191733E3,5.239362E3,7.892057E3,3.2626907E3,3.7888042E3,8.800896E3,3.5910867E4],"tree_param":{"num_deleted":"0","num_feature":"13","num_nodes":"127","size_leaf_vector":"1"}},{"base_weights":[-6.815955E-1,-9.8969245E-1,7.533995E-1,-5.353078E-1,-1.0579078E0,1.2472405E0,-1.4586183E-1,1.3024592E-1,-7.59805E-1,-1.0783046E0,-8.286064E-1,1.5440265E0,6.8805635E-1,2.4500892E-1,-5.005665E-1,-9.413106E-2,2.6013368E-1,-5.3361404E-1,-9.1616124E-1,-1.1011002E0,-1.0168996E0,-4.0133744E-1,-9.1407365E-1,1.8117777E0,1.2821403E0,8.812412E-1,2.664066E-1,5.5232483E-1,-2.0210613E-1,-2.2082108E-1,-7.2446E-1,1.22509316E-1,-2.171703E-1,3.71339E-1,-5.77759E-2,-2.9588363E-1,-6.667665E-1,-6.704408E-1,-9.7521293E-1,-1.0720998E0,-1.1066163E0,-8.22853E-1,-1.0397989E0,-2.1393268E-1,-5.269753E-1,-6.693054E-1,-9.53038E-1,1.7278904E0,2.1235738E0,1.4289443E0,1.0679747E0,1.073611E0,5.9462565E-1,4.5188707E-1,2.33538E-2,7.724963E-1,2.7254704E-1,5.165573E-2,-5.0168145E-1,8.093626E-3,-4.3166447E-1,-4.5574218E-1,-8.2245576E-1,-1.3874063E-2,9.19179E-3,-7.161475E-4,-1.4201092E-2,2.8536377E-2,1.1115785E-2,8.4873205E-3,-1.1815686E-2,-3.0221848E-3,-2.204713E-2,-2.5226522E-2,-3.968337E-2,-2.8214717E-2,-3.86315E-2,-4.5145072E-2,-5.1051226E-2,-5.068052E-2,-5.4365147E-2,-5.4944366E-2,-5.5436935E-2,-3.7348874E-2,-4.5694515E-2,-4.800625E-2,-5.2730616E-2,2.2809424E-3,-1.4467004E-2,-2.055824E-2,-3.23031E-2,-2.440213E-2,-3.6075972E-2,-4.018731E-2,-4.9492557E-2,9.534063E-2,7.999094E-2,7.5682454E-2,1.09817326E-1,8.195167E-2,6.51856E-2,5.9439737E-2,3.9941624E-2,6.681485E-2,4.819887E-2,3.6642067E-2,7.3109455E-3,3.1741228E-2,1.3471374E-2,8.186827E-3,-2.4424814E-2,5.2330103E-2,3.23597E-2,7.284552E-3,4.846169E-2,1.2422153E-2,-9.254951E-3,-1.2932424E-2,-3.332908E-2,1.4308487E-2,-7.4163154E-3,-1.0643656E-2,-2.6489703E-2,-1.3699643E-2,-3.0280862E-2,-3.3442143E-2,-4.469956E-2],"categories":[],"categories_nodes":[],"categories_segments":[],"categories_sizes":[],"default_left":[0,0,0,0,0,0,0,0,0,0,0,0,0,0,0,0,0,0,0,0,0,0,0,0,0,0,0,0,0,0,0,0,0,0,0,0,0,0,0,0,0,0,0,0,0,0,0,0,0,0,0,0,0,0,0,0,0,0,0,0,0,0,0,0,0,0,0,0,0,0,0,0,0,0,0,0,0,0,0,0,0,0,0,0,0,0,0,0,0,0,0,0,0,0,0,0,0,0,0,0,0,0,0,0,0,0,0,0,0,0,0,0,0,0,0,0,0,0,0,0,0,0,0,0,0,0,0],"id":6,"left_children":[1,3,5,7,9,11,13,15,17,19,21,23,25,27,29,31,33,35,37,39,41,43,45,47,49,51,53,55,57,59,61,63,65,67,69,71,73,75,77,79,81,83,85,87,89,91,93,95,97,99,101,103,105,107,109,111,113,115,117,119,121,123,125,-1,-1,-1,-1,-1,-1,-1,-1,-1,-1,-1,-1,-1,-1,-1,-1,-1,-1,-1,-1,-1,-1,-1,-1,-1,-1,-1,-1,-1,-1,-1,-1,-1,-1,-1,-1,-1,-1,-1,-1,-1,-1,-1,-1,-1,-1,-1,-1,-1,-1,-1,-1,-1,-1,-1,-1,-1,-1,-1,-1,-1,-1,-1,-1],"loss_changes":[4.529114E5,2.613975E4,8.0411336E4,1.6448354E4,3.428625E3,1.9396375E4,8.899372E3,8.092727E2,2.9108047E3,9.41375E2,2.187082E3,5.3517188E3,3.300996E3,4.1961807E3,2.1075156E3,2.7141415E2,6.217794E2,1.0649014E3,7.055781E2,7.7375E1,8.0925E2,2.3502417E2,4.7542188E2,9.8378125E2,1.2121875E3,1.5317676E3,5.7412317E2,1.114645E3,9.4574426E2,7.221027E2,4.918203E2,9.053134E1,8.805655E1,3.8702478E2,1.8521443E2,4.126006E2,4.436172E2,1.01890625E2,1.290625E2,6.8703125E1,5.5625E0,1.3227441E2,1.9145312E2,7.849281E1,8.217822E1,6.455664E1,2.3584766E2,6.7875E2,3.5173438E2,6.003828E2,5.0970508E2,4.7763086E2,6.9183325E2,2.4092847E2,3.9623715E2,3.47167E2,7.0440955E2,3.1387985E2,2.2847131E2,3.1209274E2,1.6709412E2,1.3595032E2,1.4989355E2,0E0,0E0,0E0,0E0,0E0,0E0,0E0,0E0,0E0,0E0,0E0,0E0,0E0,0E0,0E0,0E0,0E0,0E0,0E0,0E0,0E0,0E0,0E0,0E0,0E0,0E0,0E0,0E0,0E0,0E0,0E0,0E0,0E0,0E0,0E0,0E0,0E0,0E0,0E0,0E0,0E0,0E0,0E0,0E0,0E0,0E0,0E0,0E0,0E0,0E0,0E0,0E0,0E0,0E0,0E0,0E0,0E0,0E0,0E0,0E0,0E0,0E0,0E0,0E0],"parents":[2147483647,0,0,1,1,2,2,3,3,4,4,5,5,6,6,7,7,8,8,9,9,10,10,11,11,12,12,13,13,14,14,15,15,16,16,17,17,18,18,19,19,20,20,21,21,22,22,23,23,24,24,25,25,26,26,27,27,28,28,29,29,30,30,31,31,32,32,33,33,34,34,35,35,36,36,37,37,38,38,39,39,40,40,41,41,42,42,43,43,44,44,45,45,46,46,47,47,48,48,49,49,50,50,51,51,52,52,53,53,54,54,55,55,56,56,57,57,58,58,59,59,60,60,61,61,62,62],"right_children":[2,4,6,8,10,12,14,16,18,20,22,24,26,28,30,32,34,36,38,40,42,44,46,48,50,52,54,56,58,60,62,64,66,68,70,72,74,76,78,80,82,84,86,88,90,92,94,96,98,100,102,104,106,108,110,112,114,116,118,120,122,124,126,-1,-1,-1,-1,-1,-1,-1,-1,-1,-1,-1,-1,-1,-1,-1,-1,-1,-1,-1,-1,-1,-1,-1,-1,-1,-1,-1,-1,-1,-1,-1,-1,-1,-1,-1,-1,-1,-1,-1,-1,-1,-1,-1,-1,-1,-1,-1,-1,-1,-1,-1,-1,-1,-1,-1,-1,-1,-1,-1,-1,-1,-1,-1,-1],"split_conditions":[2.257033E1,3.899112E0,3.8411705E0,8.682533E0,1.6226044E1,8.390585E0,3.8745027E0,1.8380112E1,8.833376E0,8.216109E0,3.927254E0,3.78509E0,8.544259E0,8.463659E0,8.435945E0,-7.8222294E0,8.587786E0,-7.0117517E0,4.6798816E0,2.1218771E1,4.6798816E0,-2.4111147E0,-3.2821095E0,1.1973288E1,3.815975E0,3.8080664E0,3.8146858E0,3.147754E1,3.147754E1,3.895862E0,-5.116672E0,1E0,3.832437E0,-6.3596907E0,3.851258E0,1.6921309E1,3.8568285E0,8.916519E0,8.923944E0,-9.86462E0,-6.6993213E0,-7.5703163E0,-3.2821095E0,1.4697357E1,8.524392E0,1.4239909E1,8.344426E0,8.264813E0,3.4404217E1,8.264813E0,3.5805996E1,3.7660587E0,3.7440205E1,8.597659E0,3.7440205E1,8.292416E0,1.1029585E1,8.580636E0,-3.9937642E0,2.7760386E1,8.29892E0,3.8928533E0,8.540813E0,-1.3874063E-2,9.19179E-3,-7.161475E-4,-1.4201092E-2,2.8536377E-2,1.1115785E-2,8.4873205E-3,-1.1815686E-2,-3.0221848E-3,-2.204713E-2,-2.5226522E-2,-3.968337E-2,-2.8214717E-2,-3.86315E-2,-4.5145072E-2,-5.1051226E-2,-5.068052E-2,-5.4365147E-2,-5.4944366E-2,-5.5436935E-2,-3.7348874E-2,-4.5694515E-2,-4.800625E-2,-5.2730616E-2,2.2809424E-3,-1.4467004E-2,-2.055824E-2,-3.23031E-2,-2.440213E-2,-3.6075972E-2,-4.018731E-2,-4.9492557E-2,9.534063E-2,7.999094E-2,7.5682454E-2,1.09817326E-1,8.195167E-2,6.51856E-2,5.9439737E-2,3.9941624E-2,6.681485E-2,4.819887E-2,3.6642067E-2,7.3109455E-3,3.1741228E-2,1.3471374E-2,8.186827E-3,-2.4424814E-2,5.2330103E-2,3.23597E-2,7.284552E-3,4.846169E-2,1.2422153E-2,-9.254951E-3,-1.2932424E-2,-3.332908E-2,1.4308487E-2,-7.4163154E-3,-1.0643656E-2,-2.6489703E-2,-1.3699643E-2,-3.0280862E-2,-3.3442143E-2,-4.469956E-2],"split_indices":[9,8,8,2,9,2,8,9,2,2,8,8,2,2,2,6,2,6,3,0,3,6,6,4,8,8,8,9,9,8,6,12,8,6,8,0,8,2,2,6,6,6,6,0,2,0,2,2,9,2,9,8,9,2,9,2,4,2,6,9,2,8,2,0,0,0,0,0,0,0,0,0,0,0,0,0,0,0,0,0,0,0,0,0,0,0,0,0,0,0,0,0,0,0,0,0,0,0,0,0,0,0,0,0,0,0,0,0,0,0,0,0,0,0,0,0,0,0,0,0,0,0,0,0,0,0,0],"split_type":[0,0,0,0,0,0,0,0,0,0,0,0,0,0,0,0,0,0,0,0,0,0,0,0,0,0,0,0,0,0,0,0,0,0,0,0,0,0,0,0,0,0,0,0,0,0,0,0,0,0,0,0,0,0,0,0,0,0,0,0,0,0,0,0,0,0,0,0,0,0,0,0,0,0,0,0,0,0,0,0,0,0,0,0,0,0,0,0,0,0,0,0,0,0,0,0,0,0,0,0,0,0,0,0,0,0,0,0,0,0,0,0,0,0,0,0,0,0,0,0,0,0,0,0,0,0,0],"sum_hessian":[1.0244112E6,8.4334356E5,1.8106761E5,1.10083414E5,7.332601E5,1.1688068E5,6.418693E4,2.7766402E4,8.2317016E4,6.7335975E5,5.9900375E4,7.635411E4,4.0526574E4,3.0536834E4,3.3650098E4,1.0180385E4,1.7586018E4,3.3646742E4,4.867027E4,4.910493E5,1.8231047E5,9.985655E3,4.991472E4,3.775138E4,3.8602727E4,2.7792125E4,1.2734449E4,1.8097576E4,1.2439258E4,1.496009E4,1.8690008E4,3.6875554E3,6.4928296E3,1.3028469E4,4.5575483E3,1.2080841E4,2.1565902E4,9.432595E3,3.9237676E4,7.850641E4,4.125429E5,1.924731E4,1.6306316E5,4.0087693E3,5.976886E3,6.857169E3,4.305755E4,2.975301E4,7.9983696E3,2.2899875E4,1.5702852E4,1.6628627E4,1.1163498E4,7.222157E3,5.5122925E3,1.0126644E4,7.970933E3,6.7350303E3,5.7042275E3,7.1731226E3,7.7869673E3,4.995985E3,1.3694021E4,4.89747E2,3.1978083E3,1.609709E3,4.8831206E3,5.5713477E3,7.4571206E3,2.0038992E3,2.5536492E3,4.606163E3,7.4746772E3,9.467359E3,1.2098543E4,4.629912E3,4.8026826E3,1.5225531E4,2.4012145E4,1.6210222E4,6.2296184E4,8.899018E4,3.2355272E5,1.0502847E4,8.744464E3,2.5574969E4,1.3748819E5,9.0256036E2,3.106209E3,3.0323818E3,2.9445044E3,1.5358296E3,5.3213394E3,8.521659E3,3.453589E4,1.2406561E4,1.734645E4,8.5491815E2,7.1434517E3,8.54789E3,1.4351985E4,1.0835357E4,4.867494E3,4.893189E3,1.17354375E4,8.532752E3,2.630747E3,3.6051182E3,3.6170388E3,4.3263926E3,1.1858997E3,3.1746235E3,6.95202E3,6.744138E3,1.2267953E3,3.677933E3,3.0570972E3,2.3068767E3,3.3973506E3,2.582048E3,4.5910747E3,2.4120925E3,5.3748745E3,2.2591746E3,2.7368105E3,4.3542295E3,9.339792E3],"tree_param":{"num_deleted":"0","num_feature":"13","num_nodes":"127","size_leaf_vector":"1"}},{"base_weights":[-6.679547E-1,-9.791242E-1,7.003273E-1,-5.3691924E-1,-1.0515211E0,1.1233523E0,-1.9335522E-1,9.12981E-2,-7.605545E-1,-1.0716766E0,-8.2447183E-1,1.3597046E0,5.2521235E-1,1.4501986E-1,-5.220799E-1,2.2679126E-1,-1.0641199E-1,-5.3663313E-1,-9.1036177E-1,-1.09425E0,-1.009235E0,-4.0567636E-1,-8.994051E-1,1.5699716E0,1.0524834E0,6.831851E-1,1.342938E-1,5.231345E-1,-1.6850427E-1,-2.5564256E-1,-7.3433816E-1,1.1283736E-2,3.5694396E-1,2.7466064E-2,-3.5105842E-1,-2.9837656E-1,-6.689154E-1,-6.684604E-1,-9.682245E-1,-1.0543784E0,-1.0985901E0,-8.1403637E-1,-1.0319475E0,-2.384121E-1,-5.342379E-1,-7.065271E-1,-9.52598E-1,1.7358814E0,1.391052E0,1.2258048E0,8.915536E-1,8.6865956E-1,4.2247954E-1,3.519241E-1,-5.4298196E-2,7.2648305E-1,2.9401448E-1,8.317125E-2,-4.4107315E-1,-9.1581434E-2,-4.7033504E-1,-4.8876056E-1,-8.2859707E-1,9.278684E-3,-8.265073E-3,2.2432942E-2,4.2892615E-3,-8.641225E-3,5.772931E-3,-2.234622E-3,-2.15547E-2,-5.917208E-3,-2.3563439E-2,-2.5508538E-2,-4.0011067E-2,-2.8192176E-2,-3.8980015E-2,-4.4640027E-2,-5.066975E-2,-4.963913E-2,-5.3655863E-2,-5.4040384E-2,-5.500576E-2,-3.6114413E-2,-4.4209465E-2,-4.780014E-2,-5.2392542E-2,-5.261541E-3,-1.986794E-2,-2.1013193E-2,-3.155633E-2,-2.8808886E-2,-3.8790572E-2,-4.000082E-2,-4.95512E-2,8.1493E-2,9.915608E-2,7.989679E-2,6.3546784E-2,3.9187282E-2,6.446834E-2,5.7039786E-2,3.8210873E-2,5.246352E-2,3.4643214E-2,2.8863588E-2,-2.6493196E-3,3.0083E-2,8.0721555E-3,1.0298335E-2,-1.1344387E-2,4.5593873E-2,2.9088676E-2,9.155585E-3,4.7249947E-2,1.6827708E-2,-5.8645783E-3,-1.3497928E-2,-3.491358E-2,6.7230533E-3,-1.2590215E-2,-1.0278366E-2,-2.7178094E-2,-1.4676883E-2,-3.055635E-2,-3.4333292E-2,-4.47081E-2],"categories":[],"categories_nodes":[],"categories_segments":[],"categories_sizes":[],"default_left":[0,0,0,0,0,0,0,0,0,0,0,0,0,0,0,0,0,0,0,0,0,0,0,0,0,0,0,0,0,0,0,0,0,0,0,0,0,0,0,0,0,0,0,0,0,0,0,0,0,0,0,0,0,0,0,0,0,0,0,0,0,0,0,0,0,0,0,0,0,0,0,0,0,0,0,0,0,0,0,0,0,0,0,0,0,0,0,0,0,0,0,0,0,0,0,0,0,0,0,0,0,0,0,0,0,0,0,0,0,0,0,0,0,0,0,0,0,0,0,0,0,0,0,0,0,0,0],"id":7,"left_children":[1,3,5,7,9,11,13,15,17,19,21,23,25,27,29,31,33,35,37,39,41,43,45,47,49,51,53,55,57,59,61,63,65,67,69,71,73,75,77,79,81,83,85,87,89,91,93,95,97,99,101,103,105,107,109,111,113,115,117,119,121,123,125,-1,-1,-1,-1,-1,-1,-1,-1,-1,-1,-1,-1,-1,-1,-1,-1,-1,-1,-1,-1,-1,-1,-1,-1,-1,-1,-1,-1,-1,-1,-1,-1,-1,-1,-1,-1,-1,-1,-1,-1,-1,-1,-1,-1,-1,-1,-1,-1,-1,-1,-1,-1,-1,-1,-1,-1,-1,-1,-1,-1,-1,-1,-1,-1],"loss_changes":[4.2371375E5,2.5956125E4,6.970769E4,1.6025652E4,3.1875E3,1.7691719E4,6.5894443E3,8.0225366E2,2.8213906E3,9.009375E2,1.7824531E3,5.792953E3,2.1889326E3,3.4607627E3,1.6991631E3,4.9841595E2,3.9888126E2,1.0626309E3,7.048164E2,8.01875E1,7.525E2,1.8532104E2,4.9372266E2,1.5783438E3,1.0156172E3,1.2203408E3,4.1878708E2,6.1633887E2,1.0948706E3,4.69312E2,3.8672656E2,2.0598799E2,2.7548267E2,1.3875536E2,1.05597046E2,3.747245E2,4.5154785E2,1.1271484E2,1.3765234E2,5.2214844E1,1.03125E1,1.1338672E2,1.8282812E2,7.933392E1,5.357202E1,9.36626E1,2.2064453E2,7.209453E2,6.3479297E2,4.9203125E2,5.991201E2,4.675918E2,7.7253467E2,2.2524133E2,2.456224E2,1.8754224E2,4.4917487E2,4.215697E2,3.370232E2,2.7363937E2,1.1179199E2,1.10691895E2,1.1183594E2,0E0,0E0,0E0,0E0,0E0,0E0,0E0,0E0,0E0,0E0,0E0,0E0,0E0,0E0,0E0,0E0,0E0,0E0,0E0,0E0,0E0,0E0,0E0,0E0,0E0,0E0,0E0,0E0,0E0,0E0,0E0,0E0,0E0,0E0,0E0,0E0,0E0,0E0,0E0,0E0,0E0,0E0,0E0,0E0,0E0,0E0,0E0,0E0,0E0,0E0,0E0,0E0,0E0,0E0,0E0,0E0,0E0,0E0,0E0,0E0,0E0,0E0,0E0,0E0],"parents":[2147483647,0,0,1,1,2,2,3,3,4,4,5,5,6,6,7,7,8,8,9,9,10,10,11,11,12,12,13,13,14,14,15,15,16,16,17,17,18,18,19,19,20,20,21,21,22,22,23,23,24,24,25,25,26,26,27,27,28,28,29,29,30,30,31,31,32,32,33,33,34,34,35,35,36,36,37,37,38,38,39,39,40,40,41,41,42,42,43,43,44,44,45,45,46,46,47,47,48,48,49,49,50,50,51,51,52,52,53,53,54,54,55,55,56,56,57,57,58,58,59,59,60,60,61,61,62,62],"right_children":[2,4,6,8,10,12,14,16,18,20,22,24,26,28,30,32,34,36,38,40,42,44,46,48,50,52,54,56,58,60,62,64,66,68,70,72,74,76,78,80,82,84,86,88,90,92,94,96,98,100,102,104,106,108,110,112,114,116,118,120,122,124,126,-1,-1,-1,-1,-1,-1,-1,-1,-1,-1,-1,-1,-1,-1,-1,-1,-1,-1,-1,-1,-1,-1,-1,-1,-1,-1,-1,-1,-1,-1,-1,-1,-1,-1,-1,-1,-1,-1,-1,-1,-1,-1,-1,-1,-1,-1,-1,-1,-1,-1,-1,-1,-1,-1,-1,-1,-1,-1,-1,-1,-1,-1,-1,-1],"split_conditions":[2.257033E1,3.9026446E0,3.8454483E0,8.685677E0,1.6226044E1,8.417926E0,3.8783722E0,3.8677201E0,8.833376E0,8.216109E0,3.927254E0,3.797664E0,8.5742E0,8.399463E0,8.435945E0,1.8380112E1,8.587786E0,-7.0117517E0,4.6798816E0,3.907662E0,4.6798816E0,-1.2882068E0,2.944427E-1,8.292416E0,-5.5764136E0,3.8114362E0,-6.3596907E0,3.0796373E1,3.0796373E1,3.9026446E0,-4.5954595E0,-5.116672E0,8.587786E0,1.8380112E1,-1.0403862E1,1.8939972E1,3.860579E0,8.922309E0,8.922309E0,-1.0527786E1,2.1436253E1,-9.238756E0,-2.4111147E0,8.540813E0,8.498914E0,-7.301017E0,8.344426E0,1.156105E1,-1.0143546E1,1E0,8.274687E0,-6.6993213E0,3.6667595E1,1.73816E1,3.8066542E0,3.8580406E0,1.1029585E1,8.511721E0,8.56411E0,8.313569E0,8.274687E0,3.8928533E0,8.540813E0,9.278684E-3,-8.265073E-3,2.2432942E-2,4.2892615E-3,-8.641225E-3,5.772931E-3,-2.234622E-3,-2.15547E-2,-5.917208E-3,-2.3563439E-2,-2.5508538E-2,-4.0011067E-2,-2.8192176E-2,-3.8980015E-2,-4.4640027E-2,-5.066975E-2,-4.963913E-2,-5.3655863E-2,-5.4040384E-2,-5.500576E-2,-3.6114413E-2,-4.4209465E-2,-4.780014E-2,-5.2392542E-2,-5.261541E-3,-1.986794E-2,-2.1013193E-2,-3.155633E-2,-2.8808886E-2,-3.8790572E-2,-4.000082E-2,-4.95512E-2,8.1493E-2,9.915608E-2,7.989679E-2,6.3546784E-2,3.9187282E-2,6.446834E-2,5.7039786E-2,3.8210873E-2,5.246352E-2,3.4643214E-2,2.8863588E-2,-2.6493196E-3,3.0083E-2,8.0721555E-3,1.0298335E-2,-1.1344387E-2,4.5593873E-2,2.9088676E-2,9.155585E-3,4.7249947E-2,1.6827708E-2,-5.8645783E-3,-1.3497928E-2,-3.491358E-2,6.7230533E-3,-1.2590215E-2,-1.0278366E-2,-2.7178094E-2,-1.4676883E-2,-3.055635E-2,-3.4333292E-2,-4.47081E-2],"split_indices":[9,8,8,2,9,2,8,8,2,2,8,8,2,2,2,9,2,6,3,3,3,6,6,2,6,8,6,9,9,8,6,6,2,9,6,0,8,2,2,6,0,6,6,2,2,6,2,4,6,12,2,6,9,0,8,8,4,2,2,2,2,8,2,0,0,0,0,0,0,0,0,0,0,0,0,0,0,0,0,0,0,0,0,0,0,0,0,0,0,0,0,0,0,0,0,0,0,0,0,0,0,0,0,0,0,0,0,0,0,0,0,0,0,0,0,0,0,0,0,0,0,0,0,0,0,0,0],"split_type":[0,0,0,0,0,0,0,0,0,0,0,0,0,0,0,0,0,0,0,0,0,0,0,0,0,0,0,0,0,0,0,0,0,0,0,0,0,0,0,0,0,0,0,0,0,0,0,0,0,0,0,0,0,0,0,0,0,0,0,0,0,0,0,0,0,0,0,0,0,0,0,0,0,0,0,0,0,0,0,0,0,0,0,0,0,0,0,0,0,0,0,0,0,0,0,0,0,0,0,0,0,0,0,0,0,0,0,0,0,0,0,0,0,0,0,0,0,0,0,0,0,0,0,0,0,0,0],"sum_hessian":[9.9517344E5,8.107875E5,1.843859E5,1.1406697E5,6.9672056E5,1.2514718E5,5.9238734E4,2.9945938E4,8.412103E4,6.399108E5,5.6809766E4,8.970098E4,3.5446203E4,2.9191164E4,3.004757E4,1.776869E4,1.2177248E4,3.3721344E4,5.0399684E4,4.6998816E5,1.6992262E5,8.622999E3,4.8186766E4,5.325103E4,3.6449945E4,2.524413E4,1.020207E4,1.3232231E4,1.5958932E4,1.332436E4,1.672321E4,6.6909175E3,1.1077771E4,7.870924E3,4.306324E3,1.203967E4,2.1681676E4,9.730957E3,4.0668727E4,4.6162195E4,4.2382597E5,1.7714566E4,1.5220806E5,3.7486697E3,4.8743296E3,1.0419562E4,3.7767203E4,2.762552E4,2.562551E4,1.7546146E4,1.8903799E4,1.474893E4,1.0495201E4,4.735992E3,5.4660786E3,7.0092305E3,6.223001E3,8.297843E3,7.661089E3,7.5535806E3,5.7707793E3,4.640157E3,1.2083053E4,3.3673174E3,3.3235999E3,8.277419E3,2.800352E3,2.402145E3,5.468779E3,8.922941E2,3.4140303E3,5.89887E3,6.1408E3,9.817511E3,1.1864165E4,5.0157056E3,4.715252E3,1.5240838E4,2.542789E4,1.0780402E4,3.5381793E4,3.3531906E4,3.9029406E5,7.6807515E3,1.0033814E4,2.6365205E4,1.2584286E5,2.0405538E3,1.7081158E3,2.2421426E3,2.6321868E3,3.6194185E3,6.800143E3,7.6022134E3,3.016499E4,1.9339809E4,8.285712E3,9.408452E3,1.6217058E4,2.2074094E3,1.5338737E4,6.389436E3,1.2514363E4,7.2723755E3,7.476554E3,7.9174043E3,2.5777966E3,2.0483203E3,2.6876716E3,2.1793809E3,3.286698E3,3.0703525E3,3.9388782E3,5.3182554E3,9.047454E2,3.6648418E3,4.6330015E3,4.6016514E3,3.0594375E3,3.1332917E3,4.420289E3,1.2510693E3,4.51971E3,1.7891506E3,2.8510066E3,3.821643E3,8.26141E3],"tree_param":{"num_deleted":"0","num_feature":"13","num_nodes":"127","size_leaf_vector":"1"}},{"base_weights":[-6.539548E-1,6.6333437E-1,-9.6600175E-1,1.0625007E0,-2.452842E-1,-1.046673E0,-5.086971E-1,1.3056415E0,7.1436715E-1,7.8731716E-2,-6.904834E-1,-8.9682317E-1,-1.075376E0,-1.2033584E-1,-7.842366E-1,1.4472574E0,9.4960606E-1,9.0620154E-1,4.667364E-1,2.971419E-1,-9.738724E-2,-3.627621E-1,-8.001343E-1,-6.60339E-1,-9.490927E-1,-1.0877248E0,-1.0239359E0,1.1751423E-1,-3.8184306E-1,-6.10825E-1,-9.116997E-1,1.7154263E0,1.345865E0,1.1173195E0,8.074427E-1,1.0835564E0,7.690214E-1,6.52031E-1,2.925847E-1,5.163122E-1,1.1421668E-1,1.1569516E-1,-2.7616063E-1,-1.6948695E-1,-5.643639E-1,-6.020703E-1,-9.216545E-1,-4.588202E-1,-7.253887E-1,-8.248646E-1,-1.0038152E0,-1.045996E0,-1.0922848E0,-8.9958286E-1,-1.0480546E0,3.9682645E-1,8.616904E-3,-1.7682908E-1,-6.1258835E-1,-3.439004E-1,-6.8813556E-1,-7.277063E-1,-9.577414E-1,6.730591E-2,8.814086E-2,7.443312E-2,6.0007084E-2,6.632125E-2,4.9690418E-2,4.5316648E-2,2.8868785E-2,3.2822818E-2,5.717463E-2,7.657877E-2,3.6873095E-2,1.2542592E-2,3.5588186E-2,2.1439811E-2,8.437562E-4,-5.215867E-3,3.005977E-2,1.3838752E-2,-3.780754E-3,1.5833443E-2,-5.3485963E-3,-9.930701E-3,-3.1092543E-2,3.8442814E-3,-1.4893754E-2,-2.481078E-2,-3.8680337E-2,-2.3715954E-2,-3.2832712E-2,-4.114076E-2,-4.8596844E-2,-1.7123243E-2,-3.310594E-2,-3.0787526E-2,-4.0071324E-2,-4.2965733E-2,-2.8078815E-2,-4.7733407E-2,-5.1476736E-2,-4.94116E-2,-5.3392887E-2,-5.365475E-2,-5.469649E-2,-3.9196514E-2,-4.7297575E-2,-5.278605E-2,-4.9772345E-2,-4.8969057E-3,2.3509493E-2,1.1413553E-2,-6.770274E-3,-6.925658E-4,-1.6875388E-2,-1.8803012E-2,-3.7005868E-2,-9.863115E-3,-2.6205424E-2,-2.6449857E-2,-4.044376E-2,-2.758239E-2,-3.9176907E-2,-4.0703084E-2,-4.9682204E-2],"categories":[],"categories_nodes":[],"categories_segments":[],"categories_sizes":[],"default_left":[0,0,0,0,0,0,0,0,0,0,0,0,0,0,0,0,0,0,0,0,0,0,0,0,0,0,0,0,0,0,0,0,0,0,0,0,0,0,0,0,0,0,0,0,0,0,0,0,0,0,0,0,0,0,0,0,0,0,0,0,0,0,0,0,0,0,0,0,0,0,0,0,0,0,0,0,0,0,0,0,0,0,0,0,0,0,0,0,0,0,0,0,0,0,0,0,0,0,0,0,0,0,0,0,0,0,0,0,0,0,0,0,0,0,0,0,0,0,0,0,0,0,0,0,0,0,0],"id":8,"left_children":[1,3,5,7,9,11,13,15,17,19,21,23,25,27,29,31,33,35,37,39,41,43,45,47,49,51,53,55,57,59,61,63,65,67,69,71,73,75,77,79,81,83,85,87,89,91,93,95,97,99,101,103,105,107,109,111,113,115,117,119,121,123,125,-1,-1,-1,-1,-1,-1,-1,-1,-1,-1,-1,-1,-1,-1,-1,-1,-1,-1,-1,-1,-1,-1,-1,-1,-1,-1,-1,-1,-1,-1,-1,-1,-1,-1,-1,-1,-1,-1,-1,-1,-1,-1,-1,-1,-1,-1,-1,-1,-1,-1,-1,-1,-1,-1,-1,-1,-1,-1,-1,-1,-1,-1,-1,-1],"loss_changes":[3.974514E5,6.716302E4,2.8838312E4,1.08894375E4,8.1534326E3,2.857125E3,1.2543916E4,3.8180234E3,2.5129473E3,1.2584163E3,8.5527734E2,1.3198516E3,3.531875E2,3.026226E3,1.5151367E3,1.4712031E3,5.1312695E2,7.244785E2,7.451538E2,5.8543835E2,6.899502E2,2.3255365E2,4.288086E2,2.5320117E2,5.9391406E2,8.44375E1,3.2291406E2,7.7499445E2,1.0961694E3,5.993047E2,3.3408984E2,2.5779297E2,8.166094E2,2.5406348E2,2.6503223E2,3.3202246E2,4.0349805E2,2.6797266E2,4.47219E2,3.5004834E2,2.4570126E2,3.6982474E2,2.6389313E2,9.649126E1,4.1282776E1,4.7009033E1,5.413672E1,1.1148059E2,1.213833E2,2.4222852E2,7.577734E1,5.491797E1,1.1625E1,9.3359375E1,3.5414062E1,2.5947644E2,5.800078E2,3.2138116E2,3.2858594E2,1.7237305E2,4.32417E2,7.736133E1,1.6223828E2,0E0,0E0,0E0,0E0,0E0,0E0,0E0,0E0,0E0,0E0,0E0,0E0,0E0,0E0,0E0,0E0,0E0,0E0,0E0,0E0,0E0,0E0,0E0,0E0,0E0,0E0,0E0,0E0,0E0,0E0,0E0,0E0,0E0,0E0,0E0,0E0,0E0,0E0,0E0,0E0,0E0,0E0,0E0,0E0,0E0,0E0,0E0,0E0,0E0,0E0,0E0,0E0,0E0,0E0,0E0,0E0,0E0,0E0,0E0,0E0,0E0,0E0,0E0,0E0],"parents":[2147483647,0,0,1,1,2,2,3,3,4,4,5,5,6,6,7,7,8,8,9,9,10,10,11,11,12,12,13,13,14,14,15,15,16,16,17,17,18,18,19,19,20,20,21,21,22,22,23,23,24,24,25,25,26,26,27,27,28,28,29,29,30,30,31,31,32,32,33,33,34,34,35,35,36,36,37,37,38,38,39,39,40,40,41,41,42,42,43,43,44,44,45,45,46,46,47,47,48,48,49,49,50,50,51,51,52,52,53,53,54,54,55,55,56,56,57,57,58,58,59,59,60,60,61,61,62,62],"right_children":[2,4,6,8,10,12,14,16,18,20,22,24,26,28,30,32,34,36,38,40,42,44,46,48,50,52,54,56,58,60,62,64,66,68,70,72,74,76,78,80,82,84,86,88,90,92,94,96,98,100,102,104,106,108,110,112,114,116,118,120,122,124,126,-1,-1,-1,-1,-1,-1,-1,-1,-1,-1,-1,-1,-1,-1,-1,-1,-1,-1,-1,-1,-1,-1,-1,-1,-1,-1,-1,-1,-1,-1,-1,-1,-1,-1,-1,-1,-1,-1,-1,-1,-1,-1,-1,-1,-1,-1,-1,-1,-1,-1,-1,-1,-1,-1,-1,-1,-1,-1,-1,-1,-1,-1,-1,-1],"split_conditions":[3.8568285E0,8.533515E0,1.6226044E1,3.8066542E0,8.7475E0,3.9346564E0,3.9026446E0,8.351174E0,8.34734E0,-6.6993213E0,4.6798816E0,4.6798816E0,8.216109E0,8.478544E0,3.9346564E0,3.749853E0,-7.5703163E0,-6.3596907E0,-5.116672E0,1.7889894E1,3.821584E0,8.854676E0,8.852563E0,1.4239909E1,8.833376E0,3.907662E0,-3.9937642E0,-7.0117517E0,2.6606155E1,-5.116672E0,2.944427E-1,4.0716976E1,4.6798816E0,1.5005198E1,8.463659E0,1E0,-2.6735023E-1,1E0,3.4621265E1,1E0,8.634313E0,8.624281E0,3.4621265E1,1.4428795E1,8.968751E0,3.8146858E0,8.912439E0,8.881534E0,8.825E0,2.304012E1,8.923944E0,-9.86462E0,2.1436253E1,1.8236439E1,1.2661758E1,1E0,8.31618E0,-3.2821095E0,-4.5954595E0,8.540813E0,8.469415E0,-9.065248E0,8.344426E0,6.730591E-2,8.814086E-2,7.443312E-2,6.0007084E-2,6.632125E-2,4.9690418E-2,4.5316648E-2,2.8868785E-2,3.2822818E-2,5.717463E-2,7.657877E-2,3.6873095E-2,1.2542592E-2,3.5588186E-2,2.1439811E-2,8.437562E-4,-5.215867E-3,3.005977E-2,1.3838752E-2,-3.780754E-3,1.5833443E-2,-5.3485963E-3,-9.930701E-3,-3.1092543E-2,3.8442814E-3,-1.4893754E-2,-2.481078E-2,-3.8680337E-2,-2.3715954E-2,-3.2832712E-2,-4.114076E-2,-4.8596844E-2,-1.7123243E-2,-3.310594E-2,-3.0787526E-2,-4.0071324E-2,-4.2965733E-2,-2.8078815E-2,-4.7733407E-2,-5.1476736E-2,-4.94116E-2,-5.3392887E-2,-5.365475E-2,-5.469649E-2,-3.9196514E-2,-4.7297575E-2,-5.278605E-2,-4.9772345E-2,-4.8969057E-3,2.3509493E-2,1.1413553E-2,-6.770274E-3,-6.925658E-4,-1.6875388E-2,-1.8803012E-2,-3.7005868E-2,-9.863115E-3,-2.6205424E-2,-2.6449857E-2,-4.044376E-2,-2.758239E-2,-3.9176907E-2,-4.0703084E-2,-4.9682204E-2],"split_indices":[8,2,9,8,2,8,8,2,2,6,3,3,2,2,8,8,6,6,6,0,8,2,2,0,2,3,6,6,9,6,6,9,3,0,2,12,11,12,9,12,2,2,9,0,2,8,2,2,2,0,2,6,0,0,0,12,2,6,6,2,2,6,2,0,0,0,0,0,0,0,0,0,0,0,0,0,0,0,0,0,0,0,0,0,0,0,0,0,0,0,0,0,0,0,0,0,0,0,0,0,0,0,0,0,0,0,0,0,0,0,0,0,0,0,0,0,0,0,0,0,0,0,0,0,0,0,0],"split_type":[0,0,0,0,0,0,0,0,0,0,0,0,0,0,0,0,0,0,0,0,0,0,0,0,0,0,0,0,0,0,0,0,0,0,0,0,0,0,0,0,0,0,0,0,0,0,0,0,0,0,0,0,0,0,0,0,0,0,0,0,0,0,0,0,0,0,0,0,0,0,0,0,0,0,0,0,0,0,0,0,0,0,0,0,0,0,0,0,0,0,0,0,0,0,0,0,0,0,0,0,0,0,0,0,0,0,0,0,0,0,0,0,0,0,0,0,0,0,0,0,0,0,0,0,0,0,0],"sum_hessian":[9.669007E5,1.8517853E5,7.817222E5,1.28657625E5,5.6520914E4,6.644991E5,1.1722304E5,7.575008E4,5.2907543E4,3.2713129E4,2.3807787E4,1.0682553E5,5.576736E5,4.8651816E4,6.857122E4,5.4191805E4,2.155827E4,2.9810959E4,2.3096586E4,1.4602929E4,1.81102E4,5.969784E3,1.7838004E4,1.933978E4,8.748575E4,4.4969844E5,1.0797516E5,2.547864E4,2.3173176E4,2.9052088E4,3.9519133E4,1.4863623E4,3.9328184E4,9.887225E3,1.1671046E4,1.299863E4,1.6812328E4,1.1188964E4,1.1907621E4,6.6424785E3,7.9604507E3,8.262439E3,9.84776E3,3.0487737E3,2.9210103E3,6.78507E3,1.1052934E4,4.72138E3,1.4618398E4,2.6757764E4,6.072799E4,4.4322953E4,4.053755E5,1.7546328E4,9.042883E4,7.1463154E3,1.8332326E4,1.2271703E4,1.0901472E4,6.525928E3,2.252616E4,7.913141E3,3.1605992E4,1.693771E3,1.3169852E4,1.985886E4,1.9469324E4,3.6678252E3,6.2193994E3,8.160472E3,3.5105735E3,1.6011235E3,1.1397507E4,6.662638E2,1.6146064E4,1.4507291E3,9.738235E3,7.969711E3,3.937911E3,7.991573E2,5.8433213E3,4.28803E3,3.6724207E3,4.342545E3,3.9198943E3,8.044713E3,1.8030472E3,1.0446074E3,2.0041661E3,2.2059314E3,7.1507886E2,2.0340834E3,4.7509863E3,3.7327952E3,7.320138E3,3.004486E3,1.7168938E3,5.9902314E3,8.628167E3,2.3659738E4,3.0980251E3,2.0875445E4,3.9852543E4,1.2181812E4,3.2141143E4,3.2057666E4,3.733178E5,5.026679E3,1.2519647E4,7.891043E4,1.1518398E4,9.2277313E2,6.223542E3,7.259696E3,1.107263E4,6.092805E3,6.178898E3,3.8201633E3,7.0813086E3,3.599254E3,2.9266746E3,9.720127E3,1.2806032E4,1.9078536E3,6.005287E3,6.3235E3,2.528249E4],"tree_param":{"num_deleted":"0","num_feature":"13","num_nodes":"127","size_leaf_vector":"1"}},{"base_weights":[-6.3984716E-1,-9.58146E-1,6.173037E-1,-5.0626415E-1,-1.0353581E0,9.665307E-1,-1.8676703E-1,2.4289638E-2,-7.509016E-1,-1.0571178E0,-7.950587E-1,1.1955388E0,5.338972E-1,9.410632E-2,-5.259214E-1,1.5309264E-1,-2.4578738E-1,-5.560968E-1,-9.0328985E-1,-1.0814818E0,-9.903022E-1,-3.6675888E-1,-8.7440884E-1,1.4253068E0,1.0022684E0,6.870552E-1,1.9397654E-1,4.716991E-1,-1.4373094E-1,-1.9710553E-1,-6.792108E-1,-6.634446E-2,2.5251913E-1,-3.1138794E-2,-4.139393E-1,-3.5135394E-1,-7.029748E-1,-6.648861E-1,-9.582184E-1,-1.0387251E0,-1.0861573E0,-7.8745407E-1,-1.0143479E0,-2.2226423E-1,-5.0949174E-1,-6.756374E-1,-9.300972E-1,1.5553554E0,1.2973801E0,1.1153895E0,8.1049377E-1,8.461316E-1,4.359411E-1,3.8068467E-1,-1.484186E-2,6.6386956E-1,3.0648983E-1,1.1481148E-1,-3.849162E-1,-3.8615536E-2,-3.720412E-1,-5.144183E-1,-8.113102E-1,3.0821587E-3,-1.0851919E-2,1.8309345E-2,3.1599463E-3,7.335664E-3,-1.0012945E-2,-1.0096989E-2,-2.6807426E-2,-7.6406373E-4,-2.1880744E-2,-2.7193224E-2,-4.041757E-2,-3.0052964E-2,-4.035219E-2,-4.467388E-2,-5.014902E-2,-4.8923034E-2,-5.3026356E-2,-5.3355772E-2,-5.4394122E-2,-3.5537835E-2,-4.398434E-2,-4.6671662E-2,-5.1571783E-2,-5.7067396E-3,-1.9454783E-2,-1.9623311E-2,-3.0574366E-2,-2.1302832E-2,-3.5831638E-2,-3.8765438E-2,-4.8489153E-2,9.4439164E-2,7.499783E-2,7.153964E-2,5.781696E-2,8.016498E-2,5.4069664E-2,4.6507876E-2,2.9623037E-2,5.367416E-2,3.7482657E-2,2.8647816E-2,2.2865494E-3,2.5225272E-2,8.462494E-3,6.0670557E-3,-2.2253592E-2,3.765772E-2,2.0344459E-2,4.5155235E-2,1.0805438E-2,1.6278958E-2,-4.4312514E-3,-1.1055601E-2,-3.214703E-2,1.8432418E-2,-5.703974E-3,-4.0298095E-3,-2.252319E-2,-1.760765E-2,-3.299516E-2,-3.344368E-2,-4.5738533E-2],"categories":[],"categories_nodes":[],"categories_segments":[],"categories_sizes":[],"default_left":[0,0,0,0,0,0,0,0,0,0,0,0,0,0,0,0,0,0,0,0,0,0,0,0,0,0,0,0,0,0,0,0,0,0,0,0,0,0,0,0,0,0,0,0,0,0,0,0,0,0,0,0,0,0,0,0,0,0,0,0,0,0,0,0,0,0,0,0,0,0,0,0,0,0,0,0,0,0,0,0,0,0,0,0,0,0,0,0,0,0,0,0,0,0,0,0,0,0,0,0,0,0,0,0,0,0,0,0,0,0,0,0,0,0,0,0,0,0,0,0,0,0,0,0,0,0,0],"id":9,"left_children":[1,3,5,7,9,11,13,15,17,19,21,23,25,27,29,31,33,35,37,39,41,43,45,47,49,51,53,55,57,59,61,63,65,67,69,71,73,75,77,79,81,83,85,87,89,91,93,95,97,99,101,103,105,107,109,111,113,115,117,119,121,123,125,-1,-1,-1,-1,-1,-1,-1,-1,-1,-1,-1,-1,-1,-1,-1,-1,-1,-1,-1,-1,-1,-1,-1,-1,-1,-1,-1,-1,-1,-1,-1,-1,-1,-1,-1,-1,-1,-1,-1,-1,-1,-1,-1,-1,-1,-1,-1,-1,-1,-1,-1,-1,-1,-1,-1,-1,-1,-1,-1,-1,-1,-1,-1,-1],"loss_changes":[3.7595256E5,2.6157438E4,5.3302227E4,1.4200598E4,3.3471875E3,1.3111281E4,5.475532E3,1.2011775E3,2.2224258E3,9.5475E2,1.8067188E3,3.8413281E3,2.3846973E3,2.8237517E3,1.3123125E3,5.101093E2,4.024339E2,9.882041E2,5.4953516E2,8.484375E1,7.6446875E2,1.7133044E2,4.9592578E2,6.5566406E2,1.01877344E3,1.2610908E3,5.548078E2,3.855796E2,1.2030211E3,2.2956915E2,3.8617676E2,1.4063266E2,3.4622046E2,1.4738202E2,1.6187402E2,3.9808423E2,3.2044043E2,7.092822E1,9.805078E1,5.4710938E1,1.1625E1,1.1703125E2,1.93E2,7.450636E1,4.9666138E1,1.0017969E2,2.1449023E2,3.591797E2,3.7344922E2,4.8861328E2,4.5454004E2,4.2321582E2,6.5484717E2,1.9659961E2,3.9367612E2,1.2855933E2,3.5223553E2,3.9929355E2,4.2171863E2,1.3359912E2,8.992352E1,1.8636865E2,1.44625E2,0E0,0E0,0E0,0E0,0E0,0E0,0E0,0E0,0E0,0E0,0E0,0E0,0E0,0E0,0E0,0E0,0E0,0E0,0E0,0E0,0E0,0E0,0E0,0E0,0E0,0E0,0E0,0E0,0E0,0E0,0E0,0E0,0E0,0E0,0E0,0E0,0E0,0E0,0E0,0E0,0E0,0E0,0E0,0E0,0E0,0E0,0E0,0E0,0E0,0E0,0E0,0E0,0E0,0E0,0E0,0E0,0E0,0E0,0E0,0E0,0E0,0E0,0E0,0E0],"parents":[2147483647,0,0,1,1,2,2,3,3,4,4,5,5,6,6,7,7,8,8,9,9,10,10,11,11,12,12,13,13,14,14,15,15,16,16,17,17,18,18,19,19,20,20,21,21,22,22,23,23,24,24,25,25,26,26,27,27,28,28,29,29,30,30,31,31,32,32,33,33,34,34,35,35,36,36,37,37,38,38,39,39,40,40,41,41,42,42,43,43,44,44,45,45,46,46,47,47,48,48,49,49,50,50,51,51,52,52,53,53,54,54,55,55,56,56,57,57,58,58,59,59,60,60,61,61,62,62],"right_children":[2,4,6,8,10,12,14,16,18,20,22,24,26,28,30,32,34,36,38,40,42,44,46,48,50,52,54,56,58,60,62,64,66,68,70,72,74,76,78,80,82,84,86,88,90,92,94,96,98,100,102,104,106,108,110,112,114,116,118,120,122,124,126,-1,-1,-1,-1,-1,-1,-1,-1,-1,-1,-1,-1,-1,-1,-1,-1,-1,-1,-1,-1,-1,-1,-1,-1,-1,-1,-1,-1,-1,-1,-1,-1,-1,-1,-1,-1,-1,-1,-1,-1,-1,-1,-1,-1,-1,-1,-1,-1,-1,-1,-1,-1,-1,-1,-1,-1,-1,-1,-1,-1,-1,-1,-1,-1],"split_conditions":[2.257033E1,3.9026446E0,3.8463607E0,8.706124E0,1.6226044E1,8.390585E0,3.88265E0,8.631107E0,8.854676E0,8.216109E0,3.927254E0,3.7827127E0,8.544259E0,8.351174E0,8.375056E0,1.8380112E1,3.8502302E0,-5.5764136E0,4.6798816E0,3.907662E0,4.6798816E0,2.944427E-1,2.944427E-1,8.280757E0,3.8191519E0,3.8114362E0,3.8146858E0,2.9642143E1,3.0046982E1,3.9026446E0,2.944427E-1,-3.2821095E0,3.8693125E0,-5.9876666E0,-6.3596907E0,1.4428795E1,3.8568285E0,8.967438E0,8.939043E0,-1.0006574E1,2.1488745E1,-7.5703163E0,-2.4111147E0,8.557434E0,8.498914E0,-1.1495164E1,8.344426E0,-2.6735023E-1,4.6798816E0,-2.6735023E-1,3.4621265E1,-1.1299958E1,3.6503025E1,-2.4111147E0,3.6503025E1,3.87097E0,-1.6867922E-1,8.505785E0,8.554209E0,1.8153237E0,8.240359E0,8.5477705E0,8.533515E0,3.0821587E-3,-1.0851919E-2,1.8309345E-2,3.1599463E-3,7.335664E-3,-1.0012945E-2,-1.0096989E-2,-2.6807426E-2,-7.6406373E-4,-2.1880744E-2,-2.7193224E-2,-4.041757E-2,-3.0052964E-2,-4.035219E-2,-4.467388E-2,-5.014902E-2,-4.8923034E-2,-5.3026356E-2,-5.3355772E-2,-5.4394122E-2,-3.5537835E-2,-4.398434E-2,-4.6671662E-2,-5.1571783E-2,-5.7067396E-3,-1.9454783E-2,-1.9623311E-2,-3.0574366E-2,-2.1302832E-2,-3.5831638E-2,-3.8765438E-2,-4.8489153E-2,9.4439164E-2,7.499783E-2,7.153964E-2,5.781696E-2,8.016498E-2,5.4069664E-2,4.6507876E-2,2.9623037E-2,5.367416E-2,3.7482657E-2,2.8647816E-2,2.2865494E-3,2.5225272E-2,8.462494E-3,6.0670557E-3,-2.2253592E-2,3.765772E-2,2.0344459E-2,4.5155235E-2,1.0805438E-2,1.6278958E-2,-4.4312514E-3,-1.1055601E-2,-3.214703E-2,1.8432418E-2,-5.703974E-3,-4.0298095E-3,-2.252319E-2,-1.760765E-2,-3.299516E-2,-3.344368E-2,-4.5738533E-2],"split_indices":[9,8,8,2,9,2,8,2,2,2,8,8,2,2,2,9,8,6,3,3,3,6,6,2,8,8,8,9,9,8,6,6,8,6,6,0,8,2,2,6,0,6,6,2,2,6,2,11,3,11,9,6,9,6,9,8,11,2,2,3,2,2,2,0,0,0,0,0,0,0,0,0,0,0,0,0,0,0,0,0,0,0,0,0,0,0,0,0,0,0,0,0,0,0,0,0,0,0,0,0,0,0,0,0,0,0,0,0,0,0,0,0,0,0,0,0,0,0,0,0,0,0,0,0,0,0,0],"split_type":[0,0,0,0,0,0,0,0,0,0,0,0,0,0,0,0,0,0,0,0,0,0,0,0,0,0,0,0,0,0,0,0,0,0,0,0,0,0,0,0,0,0,0,0,0,0,0,0,0,0,0,0,0,0,0,0,0,0,0,0,0,0,0,0,0,0,0,0,0,0,0,0,0,0,0,0,0,0,0,0,0,0,0,0,0,0,0,0,0,0,0,0,0,0,0,0,0,0,0,0,0,0,0,0,0,0,0,0,0,0,0,0,0,0,0,0,0,0,0,0,0,0,0,0,0,0,0],"sum_hessian":[9.395276E5,7.497087E5,1.8981894E5,1.09408164E5,6.403005E5,1.3234023E5,5.7478703E4,3.452768E4,7.4880484E4,5.871308E5,5.3169707E4,8.653334E4,4.580689E4,3.1441172E4,2.6037531E4,2.3378584E4,1.1149097E4,3.2868215E4,4.2012273E4,4.302334E5,1.5689739E5,8.311772E3,4.4857938E4,3.953092E4,4.7002426E4,3.1577852E4,1.422904E4,1.2150281E4,1.929089E4,8.279578E3,1.7757953E4,7.2899E3,1.6088684E4,4.8979595E3,6.251137E3,1.373103E4,1.9137184E4,7.869549E3,3.4142723E4,4.2430656E4,3.8780275E5,1.6631193E4,1.402662E5,4.1316655E3,4.180107E3,9.82E3,3.5037938E4,1.9597348E4,1.9933574E4,2.9560766E4,1.744166E4,1.9330158E4,1.2247694E4,7.5117925E3,6.717247E3,5.615429E3,6.5348525E3,9.31068E3,9.98021E3,4.3446177E3,3.9349602E3,7.9034204E3,9.854532E3,3.942251E3,3.347649E3,1.0052333E4,6.0363506E3,2.3874128E3,2.5105466E3,2.286806E3,3.9643313E3,2.8047808E3,1.092625E4,7.627071E3,1.1510113E4,5.43468E3,2.4348687E3,1.3965237E4,2.0177486E4,1.1284435E4,3.1146223E4,3.2265812E4,3.5553694E5,9.085076E3,7.546117E3,2.4466635E4,1.1579956E5,2.5078936E3,1.6237719E3,1.9488854E3,2.2312217E3,1.387042E3,8.432958E3,7.1542876E3,2.7883648E4,2.7874597E3,1.6809887E4,1.02391045E4,9.694469E3,1.9225405E3,2.7638225E4,1.125905E4,6.1826104E3,5.7560054E3,1.3574152E4,9.064418E3,3.183276E3,4.7365693E3,2.7752234E3,5.102761E3,1.6144862E3,4.166052E3,1.4493773E3,8.5854083E2,5.6763115E3,4.5726484E3,4.7380317E3,6.105838E3,3.8743718E3,6.785787E2,3.6660388E3,8.34755E2,3.100205E3,3.7378547E3,4.1655654E3,4.1494067E3,5.705126E3],"tree_param":{"num_deleted":"0","num_feature":"13","num_nodes":"127","size_leaf_vector":"1"}},{"base_weights":[-6.270123E-1,-9.5939624E-1,5.3388816E-1,-5.481373E-1,-1.0332495E0,8.6712337E-1,-2.5097108E-1,-1.5563586E-1,-8.131802E-1,-1.0514929E0,-8.077062E-1,1.0963541E0,4.882288E-1,2.9064732E-2,-5.630827E-1,5.7485424E-2,-3.8670373E-1,-5.363188E-1,-8.9000535E-1,-1.0754614E0,-9.836327E-1,-4.4221047E-1,-8.894159E-1,1.2991241E0,8.881107E-1,6.577171E-1,2.0230094E-1,2.2750227E-1,-3.6937782E-1,-3.0674973E-1,-7.26231E-1,2.7447212E-1,-4.137005E-2,-2.043034E-1,-5.9842306E-1,-3.6796612E-1,-6.574329E-1,-7.5620294E-1,-9.637418E-1,-1.0419762E0,-1.0820148E0,-7.7500826E-1,-1.0079014E0,-2.4004054E-1,-5.6288034E-1,-7.0337546E-1,-9.368699E-1,1.5260792E0,1.2323455E0,1.0113313E0,7.266765E-1,8.152119E-1,4.267155E-1,3.742106E-1,4.822973E-3,4.3493536E-1,3.4812666E-2,-1.1381202E-1,-5.944703E-1,-1.8867128E-1,-5.260442E-1,-4.4728267E-1,-7.957333E-1,-7.2088237E-3,1.675843E-2,2.0542678E-3,-9.921958E-3,-1.3589356E-3,-1.9559203E-2,-1.6826324E-2,-3.480461E-2,-8.557774E-3,-2.592873E-2,-2.5198398E-2,-3.589996E-2,-3.0722061E-2,-4.1555528E-2,-4.552901E-2,-5.025023E-2,-4.8326742E-2,-5.2847702E-2,-5.36465E-2,-5.4225266E-2,-3.400866E-2,-4.238626E-2,-5.1476028E-2,-4.701212E-2,-5.300414E-3,-1.7686991E-2,-2.3872875E-2,-3.2301348E-2,-2.6363334E-2,-3.8034376E-2,-3.988721E-2,-4.8931256E-2,8.271568E-2,7.090183E-2,6.88201E-2,5.6439597E-2,5.845755E-2,4.561508E-2,4.1331496E-2,2.5041103E-2,5.1362496E-2,3.6473792E-2,2.7592136E-2,5.8099027E-3,2.566491E-2,9.88252E-3,7.7106254E-3,-2.026889E-2,3.1031748E-2,1.6015232E-2,1.7436193E-2,-7.15151E-3,6.586674E-3,-1.3066589E-2,-2.1810746E-2,-3.9260413E-2,1.7181778E-3,-1.4979622E-2,-1.3576145E-2,-3.0543327E-2,-1.4710029E-2,-3.1163901E-2,-3.3399396E-2,-4.355691E-2],"categories":[],"categories_nodes":[],"categories_segments":[],"categories_sizes":[],"default_left":[0,0,0,0,0,0,0,0,0,0,0,0,0,0,0,0,0,0,0,0,0,0,0,0,0,0,0,0,0,0,0,0,0,0,0,0,0,0,0,0,0,0,0,0,0,0,0,0,0,0,0,0,0,0,0,0,0,0,0,0,0,0,0,0,0,0,0,0,0,0,0,0,0,0,0,0,0,0,0,0,0,0,0,0,0,0,0,0,0,0,0,0,0,0,0,0,0,0,0,0,0,0,0,0,0,0,0,0,0,0,0,0,0,0,0,0,0,0,0,0,0,0,0,0,0,0,0],"id":10,"left_children":[1,3,5,7,9,11,13,15,17,19,21,23,25,27,29,31,33,35,37,39,41,43,45,47,49,51,53,55,57,59,61,63,65,67,69,71,73,75,77,79,81,83,85,87,89,91,93,95,97,99,101,103,105,107,109,111,113,115,117,119,121,123,125,-1,-1,-1,-1,-1,-1,-1,-1,-1,-1,-1,-1,-1,-1,-1,-1,-1,-1,-1,-1,-1,-1,-1,-1,-1,-1,-1,-1,-1,-1,-1,-1,-1,-1,-1,-1,-1,-1,-1,-1,-1,-1,-1,-1,-1,-1,-1,-1,-1,-1,-1,-1,-1,-1,-1,-1,-1,-1,-1,-1,-1,-1,-1,-1],"loss_changes":[3.522608E5,2.1555375E4,5.314617E4,1.1240098E4,2.47475E3,1.2388367E4,5.2933477E3,2.1448252E3,1.3713477E3,9.04375E2,1.344375E3,3.7515E3,2.6056133E3,2.5240767E3,1.1975576E3,4.8601904E2,8.0686914E2,2.8545752E2,4.9735938E2,8.9125E1,7.34875E2,2.0062573E2,3.2423047E2,6.805078E2,8.7147266E2,1.2278232E3,6.793856E2,8.5176245E2,6.1047314E2,2.8838733E2,3.389453E2,1.8025092E2,2.0161554E2,3.7162476E2,2.4713379E2,1.7375415E2,7.5371826E1,1.9000977E2,7.047656E1,7.5078125E1,6.625E0,1.03868164E2,1.8940625E2,4.686415E1,3.6288696E1,7.512744E1,1.6953711E2,1.3941992E2,5.174922E2,3.8753125E2,4.2814746E2,3.6414062E2,5.3175195E2,2.6263208E2,5.708577E2,2.1825696E2,6.168729E2,1.801145E2,1.6998865E2,1.7920514E2,8.400464E1,9.392572E1,1.3436133E2,0E0,0E0,0E0,0E0,0E0,0E0,0E0,0E0,0E0,0E0,0E0,0E0,0E0,0E0,0E0,0E0,0E0,0E0,0E0,0E0,0E0,0E0,0E0,0E0,0E0,0E0,0E0,0E0,0E0,0E0,0E0,0E0,0E0,0E0,0E0,0E0,0E0,0E0,0E0,0E0,0E0,0E0,0E0,0E0,0E0,0E0,0E0,0E0,0E0,0E0,0E0,0E0,0E0,0E0,0E0,0E0,0E0,0E0,0E0,0E0,0E0,0E0,0E0,0E0],"parents":[2147483647,0,0,1,1,2,2,3,3,4,4,5,5,6,6,7,7,8,8,9,9,10,10,11,11,12,12,13,13,14,14,15,15,16,16,17,17,18,18,19,19,20,20,21,21,22,22,23,23,24,24,25,25,26,26,27,27,28,28,29,29,30,30,31,31,32,32,33,33,34,34,35,35,36,36,37,37,38,38,39,39,40,40,41,41,42,42,43,43,44,44,45,45,46,46,47,47,48,48,49,49,50,50,51,51,52,52,53,53,54,54,55,55,56,56,57,57,58,58,59,59,60,60,61,61,62,62],"right_children":[2,4,6,8,10,12,14,16,18,20,22,24,26,28,30,32,34,36,38,40,42,44,46,48,50,52,54,56,58,60,62,64,66,68,70,72,74,76,78,80,82,84,86,88,90,92,94,96,98,100,102,104,106,108,110,112,114,116,118,120,122,124,126,-1,-1,-1,-1,-1,-1,-1,-1,-1,-1,-1,-1,-1,-1,-1,-1,-1,-1,-1,-1,-1,-1,-1,-1,-1,-1,-1,-1,-1,-1,-1,-1,-1,-1,-1,-1,-1,-1,-1,-1,-1,-1,-1,-1,-1,-1,-1,-1,-1,-1,-1,-1,-1,-1,-1,-1,-1,-1,-1,-1,-1,-1,-1,-1],"split_conditions":[2.14161E1,3.9065142E0,3.851258E0,8.764483E0,1.6226044E1,8.375056E0,3.8874319E0,8.669453E0,4.6798816E0,8.216109E0,3.9346564E0,3.7896178E0,8.524392E0,8.505785E0,8.417926E0,-9.238756E0,3.8632867E0,8.854676E0,8.872961E0,2.1318975E1,4.6798816E0,-2.4111147E0,2.944427E-1,3.7376623E0,3.8205936E0,3.8114362E0,3.8173063E0,2.921416E1,2.921416E1,3.915574E0,-6.3596907E0,1E0,3.8783722E0,-4.5954595E0,-7.8222294E0,3.8568285E0,1.1149815E0,3.8533955E0,8.953344E0,-1.0764422E1,-6.6993213E0,-9.238756E0,1.2661758E1,1.8822186E1,8.524392E0,-9.065248E0,8.364306E0,3.3597631E0,8.264813E0,8.264813E0,3.5037354E1,3.7660587E0,3.5621105E1,8.591086E0,3.5431534E1,8.319183E0,8.310727E0,-7.0117517E0,2.944427E-1,-2.4111147E0,8.280757E0,8.584401E0,8.540813E0,-7.2088237E-3,1.675843E-2,2.0542678E-3,-9.921958E-3,-1.3589356E-3,-1.9559203E-2,-1.6826324E-2,-3.480461E-2,-8.557774E-3,-2.592873E-2,-2.5198398E-2,-3.589996E-2,-3.0722061E-2,-4.1555528E-2,-4.552901E-2,-5.025023E-2,-4.8326742E-2,-5.2847702E-2,-5.36465E-2,-5.4225266E-2,-3.400866E-2,-4.238626E-2,-5.1476028E-2,-4.701212E-2,-5.300414E-3,-1.7686991E-2,-2.3872875E-2,-3.2301348E-2,-2.6363334E-2,-3.8034376E-2,-3.988721E-2,-4.8931256E-2,8.271568E-2,7.090183E-2,6.88201E-2,5.6439597E-2,5.845755E-2,4.561508E-2,4.1331496E-2,2.5041103E-2,5.1362496E-2,3.6473792E-2,2.7592136E-2,5.8099027E-3,2.566491E-2,9.88252E-3,7.7106254E-3,-2.026889E-2,3.1031748E-2,1.6015232E-2,1.7436193E-2,-7.15151E-3,6.586674E-3,-1.3066589E-2,-2.1810746E-2,-3.9260413E-2,1.7181778E-3,-1.4979622E-2,-1.3576145E-2,-3.0543327E-2,-1.4710029E-2,-3.1163901E-2,-3.3399396E-2,-4.355691E-2],"split_indices":[9,8,8,2,9,2,8,2,3,2,8,8,2,2,2,6,8,2,2,0,3,6,6,8,8,8,8,9,9,8,6,12,8,6,6,8,3,8,2,6,6,6,0,0,2,6,2,3,2,2,9,8,9,2,9,2,2,6,6,6,2,2,2,0,0,0,0,0,0,0,0,0,0,0,0,0,0,0,0,0,0,0,0,0,0,0,0,0,0,0,0,0,0,0,0,0,0,0,0,0,0,0,0,0,0,0,0,0,0,0,0,0,0,0,0,0,0,0,0,0,0,0,0,0,0,0,0],"split_type":[0,0,0,0,0,0,0,0,0,0,0,0,0,0,0,0,0,0,0,0,0,0,0,0,0,0,0,0,0,0,0,0,0,0,0,0,0,0,0,0,0,0,0,0,0,0,0,0,0,0,0,0,0,0,0,0,0,0,0,0,0,0,0,0,0,0,0,0,0,0,0,0,0,0,0,0,0,0,0,0,0,0,0,0,0,0,0,0,0,0,0,0,0,0,0,0,0,0,0,0,0,0,0,0,0,0,0,0,0,0,0,0,0,0,0,0,0,0,0,0,0,0,0,0,0,0,0],"sum_hessian":[9.129106E5,7.097098E5,2.0320081E5,1.080472E5,6.016626E5,1.4263908E5,6.0561746E4,4.3552297E4,6.4494906E4,5.566347E5,4.502793E4,8.887059E4,5.376848E4,3.1921623E4,2.8640121E4,2.2656361E4,2.0895934E4,1.4010825E4,5.048408E4,4.113352E5,1.452995E5,8.22831E3,3.679962E4,4.5024367E4,4.3846227E4,3.375711E4,2.0011371E4,2.1309312E4,1.0612312E4,1.1140084E4,1.7500037E4,7.0906606E3,1.55657E4,1.1226258E4,9.669676E3,5.863878E3,8.146947E3,1.7940486E4,3.2543594E4,6.7352484E4,3.4398272E5,1.5144439E4,1.3015506E5,3.076664E3,5.151645E3,7.482147E3,2.9317473E4,1.0231067E4,3.47933E4,2.4863201E4,1.8983023E4,2.0070621E4,1.3686489E4,1.0697781E4,9.313589E3,1.0261453E4,1.1047858E4,4.970455E3,5.641856E3,7.2423325E3,3.8977517E3,3.4920579E3,1.40079795E4,8.976721E2,6.1929883E3,1.0207751E4,5.357949E3,5.7641587E3,5.4620996E3,2.6277883E3,7.0418877E3,2.5429558E3,3.320922E3,2.3080498E3,5.838897E3,6.205622E3,1.1734865E4,1.4231405E4,1.8312188E4,1.1167725E4,5.618476E4,7.410381E4,2.698789E5,6.577126E3,8.567313E3,9.86267E4,3.1528361E4,1.4129578E3,1.6637064E3,2.5443655E3,2.6072795E3,1.8396049E3,5.6425425E3,6.772393E3,2.254508E4,4.6718228E3,5.559244E3,1.4545845E4,2.0247457E4,9.581985E3,1.5281216E4,1.3157451E4,5.825573E3,5.7756304E3,1.429499E4,9.754859E3,3.9316306E3,5.9828247E3,4.714957E3,6.827669E3,2.4859202E3,3.9149287E3,6.346525E3,3.9951108E3,7.0527476E3,1.8654819E3,3.1049734E3,3.0852825E3,2.5565737E3,2.4057192E3,4.836613E3,9.753328E2,2.922419E3,1.8690317E3,1.6230261E3,5.203114E3,8.804865E3],"tree_param":{"num_deleted":"0","num_feature":"13","num_nodes":"127","size_leaf_vector":"1"}},{"base_weights":[-6.1351424E-1,-9.4939226E-1,5.0455076E-1,-5.3348255E-1,-1.025607E0,7.9883045E-1,-2.6844332E-1,-1.4451084E-1,-7.948022E-1,-1.0447587E0,-7.91103E-1,9.649057E-1,3.3459717E-1,-1.6490009E-2,-5.5985105E-1,5.07305E-2,-3.685476E-1,-5.17657E-1,-8.733592E-1,-1.0695931E0,-9.7470826E-1,-4.192097E-1,-8.760778E-1,1.1772834E0,7.678279E-1,5.026736E-1,1.2058166E-1,3.127538E-1,-2.368765E-1,-3.3622283E-1,-7.4012095E-1,1.6541323E-1,-9.9698074E-2,-1.6799764E-1,-5.5622786E-1,-3.0781928E-1,-6.1707664E-1,-7.363789E-1,-9.5217025E-1,-1.0344758E0,-1.0764765E0,-7.638522E-1,-9.995283E-1,-2.2654258E-1,-5.362262E-1,-6.8537587E-1,-9.2501295E-1,1.3005743E0,1.0336182E0,9.761549E-1,6.696077E-1,6.016051E-1,2.4845432E-1,2.6160282E-1,-2.4217676E-1,5.0397795E-1,1.6943508E-1,3.178368E-2,-4.637809E-1,-1.3868333E-1,-4.558018E-1,-5.461616E-1,-8.329816E-1,2.1395212E-2,5.403185E-3,-1.1640596E-2,-3.5441047E-4,6.77463E-3,-1.3277525E-2,-1.3044889E-2,-3.2423973E-2,-7.350266E-3,-2.591742E-2,-1.8930487E-2,-3.3813313E-2,-2.9611427E-2,-4.0701907E-2,-4.4784337E-2,-4.9813982E-2,-4.8249308E-2,-5.263209E-2,-5.335148E-2,-5.3953487E-2,-3.416913E-2,-4.3027658E-2,-5.1083226E-2,-4.653011E-2,-2.585139E-2,-8.850333E-3,-2.2450997E-2,-3.0759305E-2,-2.5492406E-2,-3.715034E-2,-3.8592767E-2,-4.8211228E-2,8.1353776E-2,6.2488884E-2,5.70771E-2,4.5047462E-2,7.913428E-2,4.694234E-2,4.548932E-2,2.9018357E-2,4.07453E-2,2.5664503E-2,2.3234582E-2,6.6758166E-3,1.933786E-2,9.53102E-6,-2.3857497E-3,-2.4483597E-2,3.155377E-2,1.7892791E-2,2.2018505E-2,-1.0122946E-3,1.0185981E-2,-8.2668075E-3,-1.3651866E-2,-3.2158848E-2,6.039195E-3,-1.1046796E-2,-8.216864E-3,-2.7294079E-2,-7.775228E-3,-2.9408226E-2,-3.4832817E-2,-4.4206556E-2],"categories":[],"categories_nodes":[],"categories_segments":[],"categories_sizes":[],"default_left":[0,0,0,0,0,0,0,0,0,0,0,0,0,0,0,0,0,0,0,0,0,0,0,0,0,0,0,0,0,0,0,0,0,0,0,0,0,0,0,0,0,0,0,0,0,0,0,0,0,0,0,0,0,0,0,0,0,0,0,0,0,0,0,0,0,0,0,0,0,0,0,0,0,0,0,0,0,0,0,0,0,0,0,0,0,0,0,0,0,0,0,0,0,0,0,0,0,0,0,0,0,0,0,0,0,0,0,0,0,0,0,0,0,0,0,0,0,0,0,0,0,0,0,0,0,0,0],"id":11,"left_children":[1,3,5,7,9,11,13,15,17,19,21,23,25,27,29,31,33,35,37,39,41,43,45,47,49,51,53,55,57,59,61,63,65,67,69,71,73,75,77,79,81,83,85,87,89,91,93,95,97,99,101,103,105,107,109,111,113,115,117,119,121,123,125,-1,-1,-1,-1,-1,-1,-1,-1,-1,-1,-1,-1,-1,-1,-1,-1,-1,-1,-1,-1,-1,-1,-1,-1,-1,-1,-1,-1,-1,-1,-1,-1,-1,-1,-1,-1,-1,-1,-1,-1,-1,-1,-1,-1,-1,-1,-1,-1,-1,-1,-1,-1,-1,-1,-1,-1,-1,-1,-1,-1,-1,-1,-1,-1],"loss_changes":[3.3319072E5,2.162675E4,4.662488E4,1.0740436E4,2.588875E3,1.1444828E4,4.1494424E3,1.8574122E3,1.3756016E3,9.263125E2,1.3755703E3,4.575336E3,1.4069629E3,2.1994497E3,1.0562041E3,3.9146545E2,7.4416943E2,2.910664E2,5.3091797E2,9.40625E1,7.2946875E2,1.8249817E2,3.3010352E2,9.3075E2,1.1598125E3,5.508657E2,8.803479E2,3.3301282E2,1.1069028E3,2.7626733E2,2.6086523E2,1.9377707E2,1.21009285E2,2.8308667E2,2.781106E2,1.5194382E2,1.334375E2,2.0089941E2,7.6978516E1,8.04375E1,6.875E0,1.1379297E2,1.8951562E2,4.3975296E1,3.441931E1,7.287109E1,1.6861914E2,4.6758594E2,3.4701953E2,4.096582E2,8.256367E2,2.9666406E2,1.5252213E2,4.054029E2,2.3182965E2,9.6465576E1,3.5711777E2,2.818369E2,3.3666602E2,9.4199776E1,1.9122083E2,7.703369E1,6.7785645E1,0E0,0E0,0E0,0E0,0E0,0E0,0E0,0E0,0E0,0E0,0E0,0E0,0E0,0E0,0E0,0E0,0E0,0E0,0E0,0E0,0E0,0E0,0E0,0E0,0E0,0E0,0E0,0E0,0E0,0E0,0E0,0E0,0E0,0E0,0E0,0E0,0E0,0E0,0E0,0E0,0E0,0E0,0E0,0E0,0E0,0E0,0E0,0E0,0E0,0E0,0E0,0E0,0E0,0E0,0E0,0E0,0E0,0E0,0E0,0E0,0E0,0E0,0E0,0E0],"parents":[2147483647,0,0,1,1,2,2,3,3,4,4,5,5,6,6,7,7,8,8,9,9,10,10,11,11,12,12,13,13,14,14,15,15,16,16,17,17,18,18,19,19,20,20,21,21,22,22,23,23,24,24,25,25,26,26,27,27,28,28,29,29,30,30,31,31,32,32,33,33,34,34,35,35,36,36,37,37,38,38,39,39,40,40,41,41,42,42,43,43,44,44,45,45,46,46,47,47,48,48,49,49,50,50,51,51,52,52,53,53,54,54,55,55,56,56,57,57,58,58,59,59,60,60,61,61,62,62],"right_children":[2,4,6,8,10,12,14,16,18,20,22,24,26,28,30,32,34,36,38,40,42,44,46,48,50,52,54,56,58,60,62,64,66,68,70,72,74,76,78,80,82,84,86,88,90,92,94,96,98,100,102,104,106,108,110,112,114,116,118,120,122,124,126,-1,-1,-1,-1,-1,-1,-1,-1,-1,-1,-1,-1,-1,-1,-1,-1,-1,-1,-1,-1,-1,-1,-1,-1,-1,-1,-1,-1,-1,-1,-1,-1,-1,-1,-1,-1,-1,-1,-1,-1,-1,-1,-1,-1,-1,-1,-1,-1,-1,-1,-1,-1,-1,-1,-1,-1,-1,-1,-1,-1,-1,-1,-1,-1],"split_conditions":[2.14161E1,3.9065142E0,3.854508E0,8.761276E0,1.6226044E1,8.42917E0,3.8900523E0,8.669453E0,4.6798816E0,8.216109E0,3.9346564E0,3.7896178E0,3.8173063E0,8.375056E0,8.441042E0,-2.4111147E0,-3.9937642E0,3.8502302E0,8.872961E0,2.1318975E1,4.6798816E0,-2.4111147E0,2.944427E-1,8.295701E0,8.274687E0,8.5742E0,3.5037354E1,2.8276981E1,2.8760223E1,2.944427E-1,-2.4111147E0,1.4307442E1,1.8380112E1,3.821584E0,3.832437E0,8.871075E0,1.4040642E1,3.8533955E0,8.953344E0,-9.86462E0,-6.6993213E0,-7.5703163E0,1.2661758E1,1E0,8.505785E0,-9.065248E0,8.344426E0,-2.6735023E-1,-5.5764136E0,-2.6735023E-1,-1.0764422E1,-1.1398782E1,-9.86462E0,8.587786E0,-1.2882068E0,3.87097E0,4.6798816E0,8.540813E0,-1.2882068E0,-9.86462E0,8.274687E0,-1.3852426E1,8.533515E0,2.1395212E-2,5.403185E-3,-1.1640596E-2,-3.5441047E-4,6.77463E-3,-1.3277525E-2,-1.3044889E-2,-3.2423973E-2,-7.350266E-3,-2.591742E-2,-1.8930487E-2,-3.3813313E-2,-2.9611427E-2,-4.0701907E-2,-4.4784337E-2,-4.9813982E-2,-4.8249308E-2,-5.263209E-2,-5.335148E-2,-5.3953487E-2,-3.416913E-2,-4.3027658E-2,-5.1083226E-2,-4.653011E-2,-2.585139E-2,-8.850333E-3,-2.2450997E-2,-3.0759305E-2,-2.5492406E-2,-3.715034E-2,-3.8592767E-2,-4.8211228E-2,8.1353776E-2,6.2488884E-2,5.70771E-2,4.5047462E-2,7.913428E-2,4.694234E-2,4.548932E-2,2.9018357E-2,4.07453E-2,2.5664503E-2,2.3234582E-2,6.6758166E-3,1.933786E-2,9.53102E-6,-2.3857497E-3,-2.4483597E-2,3.155377E-2,1.7892791E-2,2.2018505E-2,-1.0122946E-3,1.0185981E-2,-8.2668075E-3,-1.3651866E-2,-3.2158848E-2,6.039195E-3,-1.1046796E-2,-8.216864E-3,-2.7294079E-2,-7.775228E-3,-2.9408226E-2,-3.4832817E-2,-4.4206556E-2],"split_indices":[9,8,8,2,9,2,8,2,3,2,8,8,8,2,2,6,6,8,2,0,3,6,6,2,2,2,9,9,9,6,6,0,9,8,8,2,0,8,2,6,6,6,0,12,2,6,2,11,6,11,6,6,6,2,6,8,3,2,6,6,2,6,2,0,0,0,0,0,0,0,0,0,0,0,0,0,0,0,0,0,0,0,0,0,0,0,0,0,0,0,0,0,0,0,0,0,0,0,0,0,0,0,0,0,0,0,0,0,0,0,0,0,0,0,0,0,0,0,0,0,0,0,0,0,0,0,0],"split_type":[0,0,0,0,0,0,0,0,0,0,0,0,0,0,0,0,0,0,0,0,0,0,0,0,0,0,0,0,0,0,0,0,0,0,0,0,0,0,0,0,0,0,0,0,0,0,0,0,0,0,0,0,0,0,0,0,0,0,0,0,0,0,0,0,0,0,0,0,0,0,0,0,0,0,0,0,0,0,0,0,0,0,0,0,0,0,0,0,0,0,0,0,0,0,0,0,0,0,0,0,0,0,0,0,0,0,0,0,0,0,0,0,0,0,0,0,0,0,0,0,0,0,0,0,0,0,0],"sum_hessian":[8.872443E5,6.822805E5,2.0496381E5,1.0566524E5,5.7661525E5,1.4844906E5,5.651475E4,4.2462215E4,6.3203027E4,5.33076E5,4.3539242E4,1.0933454E5,3.9114523E4,3.030976E4,2.620499E4,2.2689643E4,1.9772572E4,1.3960097E4,4.9242934E4,3.935428E5,1.395332E5,8.0991465E3,3.5440098E4,5.262214E4,5.67124E4,2.1907883E4,1.7206639E4,1.2153204E4,1.8156557E4,1.1697224E4,1.4507766E4,1.2874426E4,9.815218E3,9.559476E3,1.0213097E4,4.4891924E3,9.470904E3,1.798822E4,3.125471E4,6.4522133E4,3.2902066E5,1.4698176E4,1.2483503E5,3.0614392E3,5.0377075E3,7.2401226E3,2.8199975E4,2.831483E4,2.430731E4,1.8168248E4,3.8544152E4,1.5769634E4,6.138248E3,1.2390249E4,4.81639E3,5.2053745E3,6.9478296E3,8.313746E3,9.842811E3,4.4116016E3,7.2856216E3,4.699252E3,9.808514E3,2.3073118E3,1.0567113E4,4.026364E3,5.7888535E3,2.325227E3,7.234248E3,2.4318162E3,7.7812803E3,2.5460637E3,1.9431284E3,1.8847792E3,7.5861255E3,6.300995E3,1.1687226E4,1.3714352E4,1.754036E4,1.3382937E4,5.1139195E4,7.095311E4,2.5806756E5,8.0267725E3,6.671404E3,9.447857E4,3.035646E4,4.446303E2,2.6168088E3,2.3970269E3,2.6406807E3,1.7920076E3,5.448115E3,5.752359E3,2.2447615E4,3.8079255E3,2.4506904E4,1.3399475E4,1.0907836E4,1.050384E3,1.7117863E4,1.0439225E4,2.8104926E4,4.6150425E3,1.1154592E4,2.1292896E3,4.0089585E3,8.378471E3,4.011779E3,2.6978386E3,2.1185515E3,2.7821414E3,2.4232334E3,2.8605615E3,4.087268E3,4.4405146E3,3.8732312E3,4.7717485E3,5.071062E3,1.0617677E3,3.349834E3,1.7207472E3,5.5648745E3,4.5666263E2,4.2425894E3,2.6800889E3,7.128425E3],"tree_param":{"num_deleted":"0","num_feature":"13","num_nodes":"127","size_leaf_vector":"1"}},{"base_weights":[-6.006959E-1,4.748215E-1,-9.3862045E-1,7.5060344E-1,-3.3024636E-1,-1.0188982E0,-4.959722E-1,9.440924E-1,4.600549E-1,-7.0846446E-2,-7.0426893E-1,-8.5579276E-1,-1.0494676E0,-2.1262664E-1,-7.8420097E-1,1.1093144E0,7.2663367E-1,6.097332E-1,2.6483473E-1,1.9444898E-1,-1.8904424E-1,-4.104348E-1,-8.019521E-1,-6.1296576E-1,-9.107587E-1,-1.0641199E0,-9.892582E-1,-4.9074985E-2,-4.5389092E-1,-5.656701E-1,-8.5975254E-1,1.2413007E0,9.7313267E-1,8.178695E-1,5.2094984E-1,7.587569E-1,4.920799E-1,4.6294695E-1,1.22239575E-1,3.7677518E-1,-1.0140732E-2,5.461686E-2,-2.982289E-1,-3.1457192E-1,-6.269818E-1,-6.8328285E-1,-9.321771E-1,-4.2284387E-1,-6.8607944E-1,-7.7854514E-1,-9.695901E-1,-1.0155985E0,-1.069463E0,-8.471496E-1,-1.0174985E0,8.060325E-2,-2.3289977E-1,-2.4863677E-1,-6.345933E-1,-4.678249E-1,-7.264345E-1,-6.914821E-1,-9.140405E-1,4.1246142E-2,6.351443E-2,7.0045464E-2,4.686018E-2,5.3914886E-2,3.8320277E-2,3.3893388E-2,1.8901408E-2,1.807049E-2,4.0767428E-2,2.9133081E-2,1.5997764E-2,3.800236E-2,1.9177381E-2,1.1690482E-2,-4.6257395E-3,-1.1054494E-2,2.2748882E-2,1.0367795E-2,-6.1378847E-3,1.2138608E-2,-2.1907347E-3,-5.2079996E-3,-1.8804966E-2,-5.1186113E-3,-2.074327E-2,-2.064017E-2,-3.500777E-2,-2.92561E-2,-3.7376378E-2,-4.359571E-2,-4.8110977E-2,-1.5860511E-2,-3.0356199E-2,-2.898471E-2,-3.7980728E-2,-4.0768124E-2,-2.4796378E-2,-4.5890912E-2,-4.983518E-2,-4.5371015E-2,-5.1562686E-2,-5.23507E-2,-5.356982E-2,-3.5829354E-2,-4.497234E-2,-4.7909904E-2,-5.1313717E-2,1.108931E-2,-5.6567667E-3,-3.3312172E-3,-1.7917164E-2,-3.3337746E-3,-1.6714869E-2,-1.7811734E-2,-3.7236553E-2,-1.739044E-2,-3.0015556E-2,-2.4094205E-2,-3.8020823E-2,-2.8299738E-2,-3.9803244E-2,-3.931516E-2,-4.7927033E-2],"categories":[],"categories_nodes":[],"categories_segments":[],"categories_sizes":[],"default_left":[0,0,0,0,0,0,0,0,0,0,0,0,0,0,0,0,0,0,0,0,0,0,0,0,0,0,0,0,0,0,0,0,0,0,0,0,0,0,0,0,0,0,0,0,0,0,0,0,0,0,0,0,0,0,0,0,0,0,0,0,0,0,0,0,0,0,0,0,0,0,0,0,0,0,0,0,0,0,0,0,0,0,0,0,0,0,0,0,0,0,0,0,0,0,0,0,0,0,0,0,0,0,0,0,0,0,0,0,0,0,0,0,0,0,0,0,0,0,0,0,0,0,0,0,0,0,0],"id":12,"left_children":[1,3,5,7,9,11,13,15,17,19,21,23,25,27,29,31,33,35,37,39,41,43,45,47,49,51,53,55,57,59,61,63,65,67,69,71,73,75,77,79,81,83,85,87,89,91,93,95,97,99,101,103,105,107,109,111,113,115,117,119,121,123,125,-1,-1,-1,-1,-1,-1,-1,-1,-1,-1,-1,-1,-1,-1,-1,-1,-1,-1,-1,-1,-1,-1,-1,-1,-1,-1,-1,-1,-1,-1,-1,-1,-1,-1,-1,-1,-1,-1,-1,-1,-1,-1,-1,-1,-1,-1,-1,-1,-1,-1,-1,-1,-1,-1,-1,-1,-1,-1,-1,-1,-1,-1,-1,-1],"loss_changes":[3.13466E5,4.5782184E4,2.3320438E4,8.634086E3,5.104644E3,2.769E3,8.228127E3,3.3116094E3,1.7939043E3,9.742656E2,6.181113E2,1.1698555E3,4.1171875E2,2.0048215E3,8.2413477E2,9.4041016E2,7.46584E2,6.089365E2,7.527218E2,3.5721814E2,5.718267E2,1.1144104E2,2.4924414E2,2.2474023E2,5.5541016E2,9.646875E1,3.6667188E2,7.218825E2,7.6118994E2,2.0154297E2,3.3839062E2,3.200039E2,3.9503906E2,3.6873633E2,2.7412646E2,3.444248E2,3.026411E2,2.627837E2,3.7130768E2,2.3685004E2,1.1058048E2,1.2320387E2,2.2426562E2,7.9333496E1,2.5557373E1,5.2938477E1,1.3113281E1,8.738599E1,9.101611E1,2.2875879E2,6.853516E1,6.230078E1,1.359375E1,1.0306445E2,3.878125E1,4.8571924E2,2.6124908E2,1.4980377E2,3.3438867E2,1.2669617E2,3.9971924E1,